tree
version=v4
num_class=1
num_tree_per_iteration=1
label_index=0
max_feature_idx=428
objective=binary sigmoid:1
feature_names=TransactionAmt ProductCD card1 card2 card3 card4 card5 card6 addr1 addr2 dist1 P_emaildomain R_emaildomain C1 C2 C3 C4 C5 C6 C7 C8 C9 C10 C11 C12 C13 C14 D1 D2 D3 D4 D5 D6 D8 D9 D10 D11 D12 D13 D14 D15 M1 M2 M3 M4 M5 M6 M7 M8 M9 V1 V2 V3 V4 V5 V6 V7 V8 V9 V10 V11 V12 V13 V14 V15 V16 V17 V18 V19 V20 V21 V22 V23 V24 V25 V26 V27 V28 V29 V30 V31 V32 V33 V34 V35 V36 V37 V38 V39 V40 V41 V42 V43 V44 V45 V46 V47 V48 V49 V50 V51 V52 V53 V54 V55 V56 V57 V58 V59 V60 V61 V62 V63 V64 V65 V66 V67 V68 V69 V70 V71 V72 V73 V74 V75 V76 V77 V78 V79 V80 V81 V82 V83 V84 V85 V86 V87 V88 V89 V90 V91 V92 V93 V94 V95 V96 V97 V98 V99 V100 V101 V102 V103 V104 V105 V106 V107 V108 V109 V110 V111 V112 V113 V114 V115 V116 V117 V118 V119 V120 V121 V122 V123 V124 V125 V126 V127 V128 V129 V130 V131 V132 V133 V134 V135 V136 V137 V138 V139 V140 V141 V142 V143 V144 V145 V146 V147 V148 V149 V150 V151 V152 V153 V154 V155 V156 V157 V158 V159 V160 V161 V162 V163 V164 V165 V166 V167 V168 V169 V170 V171 V172 V173 V174 V175 V176 V177 V178 V179 V180 V181 V182 V183 V184 V185 V186 V187 V188 V189 V190 V191 V192 V193 V194 V195 V196 V197 V198 V199 V200 V201 V202 V203 V204 V205 V206 V207 V208 V209 V210 V211 V212 V213 V214 V215 V216 V217 V218 V219 V220 V221 V222 V223 V224 V225 V226 V227 V228 V229 V230 V231 V232 V233 V234 V235 V236 V237 V238 V239 V240 V241 V242 V243 V244 V245 V246 V247 V248 V249 V250 V251 V252 V253 V254 V255 V256 V257 V258 V259 V260 V261 V262 V263 V264 V265 V266 V267 V268 V269 V270 V271 V272 V273 V274 V275 V276 V277 V278 V279 V280 V281 V282 V283 V284 V285 V286 V287 V288 V289 V290 V291 V292 V293 V294 V295 V296 V297 V298 V299 V300 V301 V302 V303 V304 V305 V306 V307 V308 V309 V310 V311 V312 V313 V314 V315 V316 V317 V318 V319 V320 V321 V322 V323 V324 V325 V326 V327 V328 V329 V330 V331 V332 V333 V334 V335 V336 V337 V338 V339 id_01 id_02 id_03 id_04 id_05 id_06 id_09 id_10 id_11 id_12 id_13 id_14 id_15 id_16 id_17 id_19 id_20 id_28 id_29 id_30 id_31 id_32 id_33 id_34 id_35 id_36 id_37 id_38 DeviceType DeviceInfo TransactionDT_hour TransactionDT_day TransactionDT_is_weekend card1_txn_1.0h card1_txn_24.0h device_card_count device_multi_card card_amt_mean card_amt_std amt_zscore
feature_infos=[0.29199999999999998:31937.391] -1:4:0:2:1:3 [1001:18395] [100:600] [100:231] -1:4:3:1:2 [100:237] -1:3:2:0:4 [100:540] [10:102] [0:10286] -1:17:54:0:20:2:3:10:24:36:32:4:26:44:49:59:5:31:55:11:35:9:27:43:30:12:29:37:16:25:42:1:23:13:33:14:22:51:48:38:50:41:15:7:34:45:57:6:8:47:58:18:39:40:19:53:56:28:46:21 -1:0:17:20:2:55:3:36:10:24:56:32:26:50:44:27:31:11:4:5:37:23:60:35:22:29:38:51:9:30:59:18:43:58:14:12:13:16:25:52:57:8:19:46:42:39:54:28:41:47:40:49:53:21:48:1:6:33:45:15:7 [0:4681] [0:5690] [0:21] [0:2249] [0:349] [0:2249] [0:2251] [0:3327] [0:210] [0:3253] [0:3184] [0:3184] [0:2913] [0:1424] [0:640] [0:640] [0:689] [-122:771] [0:731] [-6:785] [0:1707.7916259765625] [0:0.95833301544189442] [0:790] [-33:586] [0:583] [0:797] [-193:781] [-60:790] -1:2:1 -1:2:1:0 -1:2:1:0 -1:3:0:2:1 -1:2:0:1 -1:0:2:1 -1:2:0:1 -1:2:0:1 -1:2:1:0 none [0:5] [0:5] [0:5] [0:6] [0:6] [0:7] [0:6] [0:6] [0:3] [0:4] [0:3] [0:5] [0:1] [0:7] [0:15] [0:15] [0:15] [0:7] [0:15] [0:5] [0:8] [0:13] [0:13] [0:5] [0:13] [0:4] [0:4] [0:5] [0:9] [0:7] [0:15] [0:5] [0:13] [0:3] [0:4] [0:54] [0:54] [0:14] [0:23] [0:1] [0:8] [0:8] [0:48] [0:48] [0:6] [0:7] [0:5] [0:5] [0:5] [0:6] [0:7] [0:5] [0:6] [0:17] [0:29] [0:5] [0:7] [0:12] [0:12] [0:6] [0:7] [0:7] [0:7] [0:1] [0:5] [0:8] [0:2] [0:5] [0:5] [0:5] [0:7] [0:5] [0:8] [0:4] [0:6] [0:30] [0:30] [0:7] [0:16] [0:16] [0:7] [0:7] [0:7] [0:7] [0:30] [0:30] [0:1] [0:2] [0:5] [0:6] [0:7] [0:7] [0:1] [0:27] [0:121] [0:48] [0:12] [0:87] [0:25] [0:22] [0:113] [0:44] [0:15] [0:38] [0:23] none [0:7] [0:7] [0:7] [0:9] [0:9] [0:9] [0:6] [0:6] [0:6] [0:3] [0:3] [0:3] [0:3] [0:3] [0:3] [0:13] [0:13] [0:13] [0:65297.171875] [0:65297.171875] [0:65297.171875] [0:11000] [0:11000] [0:11000] [0:63874.78125] [0:63874.78125] [0:63874.78125] [0:50820] [0:50820] [0:50820] [0:22] [0:33] [0:33] [0:4] [0:9] [0:51] [0:62] [0:297] [0:14] [0:16] [0:13] [0:15] [1:3389] [1:57] [1:69] [0:7] [0:8] [0:12] [0:16] [0:13] [0:16] [0:43891.9296875] [0:641411.4375] [0:3000] [0:3000] [0:3000] [0:20400] [0:20400] [0:101640] [0:57] [0:215] [0:19] [0:48] [0:48] [0:31] [0:6] [0:8] [0:12] [1:48] [0:47] [0:130] [0:68] [0:68] [0:15] [0:50] [0:30] [0:13] [0:16] [1:38] [1:216] [0:17] [0:17] [1:42] [1:21] [1:44] [1:37] [0:7] [0:8] [1:38] [0:12] [0:14] [1:45] [0:45] [0:45] [0:101640] [0:101640] [0:101640] [0:11000] [0:11000] [0:25525] [0:3250] [0:8050] [0:3250] [0:12000] [0:36900] [0:16950] [0:101640] [0:101640] [0:101640] [0:53] [0:219] [0:79] [0:23] [0:217] [0:217] [0:16] [0:144] [0:51] [0:242] [0:202] [1:54] [1:176] [1:65] [0:51] [0:51] [0:51] [0:120] [0:15] [0:34] [0:16] [0:15] [0:16] [1:6] none [1:20] [1:57] [1:22] [0:187] [1:45] [1:12] [1:36] [1:22] [0:13] [0:13] [1:18] [1:163] [1:60] [0:80] [0:80] [1:48] [1:66] [0:195] [0:6] [0:49] [0:20] [0:101640] [0:101640] [0:101640] [0:11000] [0:27000] [0:12550] [0:11000] [0:4000] [0:4000] [0:4000] [0:15000] [0:26700] [0:20850] [0:101640] [0:101640] [0:101640] [0:66] [0:323] [0:22] [0:32] [0:68] [0:12] [0:94] [0:7] [0:30] [0:10] [0:11] [1:67] [1:1052] [1:315] [0:66] [0:1085] [0:322] [0:61] [0:12] [0:47] [0:25] [0:11] [0:11] [0:10] [0:17] [0:10] none [0:101640] [0:101640] [0:101640] [0:11000] [0:11000] [0:11000] [0:11000] [0:4817.47021484375] [0:6159.89013671875] [0:4817.47021484375] [0:63874.78125] [0:86715.9609375] [0:63874.78125] [0:101640] [0:101640] [0:101640] [0:32] [0:49] [0:33] [0:12] [0:44] [0:18] [0:15] [0:24] [0:15] [0:20750] [0:21250] [0:21250] [0:11000] [0:11000] [0:11000] [0:16250] [0:16250] [0:16250] [-100:0] [36:999074] [-11:9] [-28:0] [-72:50] [-100:0] [-23:25] [-100:0] [90:100] -1:2:1:0 [10:63] [-660:720] -1:2:0:1 -1:2:1:0 [100:229] [100:671] [100:660] -1:2:0:1 -1:2:0:1 -1:40:42:43:65:63:7:31:24:45:33:20:56:32:67:64:66:12:62:0:60:8:6:39:34:70:55:4:68:53:61:49:13:17:46:54:30:16:15:52:11:59:58:57:44:47:51:14:37:29:38:28:50:5:23:3:18:1:22:36:19:10:21:25:2:26:27:9:69:48:71 -1:12:45:79:42:72:92:82:46:48:67:49:78:43:60:51:59:97:68:40:20:81:61:73:41:58:38:64:39:17:47:88:35:37:63:29:31:15:34:52:85:98:36:70:66:83:22:11:84:32:30:25:44:57:14:2:33:19:80:23:28:56:1:18:10:26:27:21:50:71:87:96:24:62:7:100:86:95:94:91:77:65:69:13:75:76:93 [0:32] -1:163:78:38:31:96:49:89:58:25:110:109:123:62:6:18:84:105:23:79:3:97:148:116:135:35:142:118:145:159:95:98:126:129:19:56:1:113:108:127:160:24:10:114:158:136:103:26:87:124:9:54:81:143:88:90:122:67:92:36:104:134:161:125:154:29:131:11:41:48:55:82:121:137:0:5:69:70:72:99 -1:0:4:3:2 -1:2:1:0 -1:2:0:1 -1:2:1:0 -1:2:1:0 -1:0:1:2 -1:1262:1296:1399:587:1258:1411:1435:1056:1102:1062:962:971:1042:1429:1436:1046:65:745:1146:1397:1425:1054:967:1075:963:1052:907:797:1096:1434:155:613:610:389:1120:451:617:929:1011:313:463:800:865:317:608:793:817:833:1061:315:936:1106:634:1033:612:306:606:696:280:445:622:1252:363:630:996:1038:217:599:1101:1110:457:458:758:926:312:482:566:611:1091:123:148:157:620:787:498:605:214:284:502:639:223:407:433:757:1292:109:250:577:927:124:224:650:766:1034:219:629:698:1018:1199:1347:415:595:956:1145:1352:412:430:501:796:986:344:497:499:626:902:1354:14:285:305:548:920:1143:1281:546:618:635:666:1047:1049:1141:1271:29:283:525:704:734:786:820:868:1002:1021:1278:1378:27:327:362:474:500:545:761:955:1058:1068:1133:1428:1432:18:195:205:242:324:585:965:1031:1092:1207:1242:1297:1313:1395:1413:142:301:381:446:572:699:778:1190:1213:1279:1359:36:146:152:311:364:386:516:527:571:583:616:619:708:738:802:854:1149:1268:1368:1422:17:20:96:147:325:625:628:788:943:1066:1285:1336:64:145:149:181:222:338:429:486:551:601:752:912:972:1070:1126:1135:1317:1424:122:370:521:921:1020:1139:1184:1210:1350:9:26:171:185:188:216:239:350:401:432:436:477:569:637:643:702:755:791:795:799:824:857:917:925:1028:1072:1081:1197:1203:1291:1373:127:141:143:268:278:289:291:330:349:371:440:592:623:638:727:753:790:821:832:841:843:848:860:893:910:935:939:964:1025:1065:1100:1104:1114:1162:1214:1240:1241:1249:1257:1308:1351:1394:1431:75:95:118:144:160:168:332:356 [0:23] [0:6] [0:1] [0:68] [0:654] [1:10564] [0:1] [3.4980000000000002:3381.9499999999998] [0:2506.6581839672517] [-3.3584350177936977:36.905840647035433]
tree_sizes=3413 3663 3514 3436 3534 3896 3907 3861 3906 3903 3718 3735 3606 4018 3918 3972 3842 3727 3764 3892 4099 3564 4079 3927 3916 3829 4054 4138 3733 3993 3983 4020 3897 3638 4058 3913 3972 3939 4199 4050 3998 3986 4070 3874 3955 3978 4022 3810 3987 4012 4277 3867 3990 4175 3951 3599 4008 3948 3906 4123 3903 4054 4270 4170 3678 3983 3943 4209 3941 3930 4138 4178 3962 3773 4211 3984 4082 4190 4062 3961 3932 4138 4179 3676 3981 4326 3954 4170 3782 4195 3916 4223 3736 4253 4016 4173 3824 3926 4351 4001 3565 4023 4015 4084 4346 3533 3759 3894 3771 3654 3697 3723 3980 3942 4311 3976 3999 3990 3524 3898 3726 3950 3691 3862 3986 3789 4254 3491 4275 3824 4224 3914 3848 4119 3587 3657 4079 3712 4087 3714 3873 3841 4058 4095 3958 3923 3972 4188 4022 3600 4363 3708 4001 4192 3701 4028 3859 3699 3864 3814 3766 3684 4132 4213 3815 3567 3484 3485 3535 3968 3672 4193 3873 3562 3627 3759 4299 3943 3676 3760 3744 3929 3776 3528 3780 3821 3787 3586 3780 3848 3862 3675 3566 4417 3769 3467 3645 3734 3938 3514 3448 4086 3763 3503 3840 3684 4290 3642 3993 4012 3540 3798 3504 3682 3732 3774 3856 3997 3879 4055 3854 4004 3672 3678 3756 3731 3574 3776 4035 3569 3498 3482 3464 3493 3492 3561 3677 3733 3798 3685 3560 3582 3623 3810 4187 3885 3740 3735 3737 3722 3498 3523 3538 3824 3517 3503 3537 3509 3515 3724 3536 3854 3535 3628 3538 3697 3578 4092 3487 3748 4168 4244 4208 4345 4023 3795 4051 3534 3508 3574 3460 3765 3525 3552 3649 3961 3832 3642 3645 3654 3512 3523 3523 3514 3501

Tree=0
num_leaves=31
num_cat=4
split_feature=307 343 26 20 28 44 7 17 16 28 389 23 332 236 18 426 426 307 0 0 108 14 25 359 12 28 1 175 17 103
split_gain=504222 323963 213245 141052 89084.9 61984.1 40634.5 26701.9 22581.5 21383 18577.1 16923.7 16090.7 13919.6 12581.8 11461.7 11245.4 11212.7 10827.4 10719.6 10244.9 9564.4 11732.4 9355.18 8918.77 8524.31 8075.02 7561.76 6926.48 6326.43
threshold=1.5000000000000002 1.0000000180025095e-35 1.0000000180025095e-35 2.5000000000000004 6.5000000000000009 0 1 1.0000000180025095e-35 1.0000000180025095e-35 205.50000000000003 -47.999999999999993 2.5000000000000004 3.5000000000000004 1.5000000000000002 2.5000000000000004 244.03573600697476 114.74007444061964 2.5000000000000004 75.021000000000015 140.52500000000003 1.0000000180025095e-35 1.5000000000000002 1.0000000180025095e-35 384.62500000000006 2 196.50000000000003 3 24.522150039672855 1.0000000180025095e-35 1.5000000000000002
decision_type=2 2 2 2 2 1 9 2 2 2 2 2 2 2 2 2 2 2 2 2 2 2 2 2 9 2 1 2 2 2
left_child=1 2 8 4 18 13 10 11 28 -5 -7 12 15 19 27 23 29 21 -4 24 -14 22 -2 -3 -6 -13 -21 -8 -1 -9
right_child=17 7 3 9 5 6 14 16 -10 -11 -12 25 20 -15 -16 -17 -18 -19 -20 26 -22 -23 -24 -25 -26 -27 -28 -29 -30 -31
leaf_value=-2.4995712806457915 -2.1422181251219445 -2.4585197833237542 -2.7091595313086971 -2.1607466247820657 -2.7419143821500231 -1.9310237805269208 -3.0644096968105181 -3.3085904125168084 -2.153919430412361 -3.1165970449142817 -2.7055026055225637 -2.0409770606570743 -2.1352421718033687 -2.1854641615188921 -2.7631131394588033 -2.1320557859325384 -2.5353958751794643 -1.9100619696067 -2.3486572922333373 -2.584039400099567 -2.8275232261457686 -2.0513441361681597 -2.9781459051800625 -2.8637872455353395 -3.2461235131201942 -2.962682318414025 -3.0985189401857474 -2.7608812528168096 -3.0460332027752881 -2.321297854245298
leaf_weight=397.99365003034472 112.06023720279336 829.39666312560439 370.07511331513524 614.60575516521931 81.407232563942671 83.384522791951895 2689.5850782953203 90.133950211107731 946.00651579722762 64.666017856448889 1083.9577941037714 793.20249417424202 855.52912433817983 35.163168769329786 472.58078522607684 223.45220393314958 284.49939371272922 1585.9702434763312 476.40267745405436 79.478890892118216 57.002650912851095 803.50684231892228 67.114270009100437 171.91584263369441 3156.8902082443237 25.904272273182869 1100.7574987784028 222.14142002165318 67.876909282058477 19.788074377924204
leaf_count=5231 700 10244 6361 4059 1333 181 64670 2592 6123 1620 18555 3405 5229 249 8615 1352 3936 2801 4874 1026 1110 3610 1502 3468 86957 572 27143 4040 1608 192
internal_value=-2.6405 -2.74937 -2.87126 -2.94862 -2.99667 -3.04277 -2.91304 -2.31492 -2.29424 -2.25174 -2.65614 -2.26337 -2.33742 -3.17673 -3.00344 -2.45584 -2.70135 -1.99229 -2.50627 -3.18422 -2.17849 -2.125 -2.45534 -2.5281 -3.23124 -2.07013 -3.05522 -3.04125 -2.57919 -3.13086
internal_weight=17862.4 15293.8 11943 10531.1 9851.82 9005.35 4551.65 3350.82 1411.88 679.272 1167.34 2956.4 2137.3 4453.7 3384.31 1224.76 394.421 2568.65 846.478 4418.53 912.532 982.681 179.175 1001.31 3238.3 819.107 1180.24 2911.73 465.871 109.922
internal_count=283358 274745 242645 229683 224004 212769 96061 32100 12962 5679 18736 25380 21403 116708 77325 15064 6720 8613 11235 116459 6339 5812 2202 13712 88290 3977 28169 68710 6839 2784
cat_boundaries=0 1 2 3 4
cat_threshold=8 4 1051136 2
is_linear=0
shrinkage=1


Tree=1
num_leaves=31
num_cat=8
split_feature=119 23 26 361 358 408 3 28 0 426 426 11 30 7 359 426 0 11 209 418 424 11 334 359 427 11 40 28 17 411
split_gain=61463.7 21718.2 13111.9 18663.2 10525.7 9002.74 7479.58 6440.21 5575.55 5570.12 4800.37 4674.83 4176.16 4157.78 4083.01 5025.53 3757.6 3659.2 3541.7 3348.5 5008.8 3221.06 3089.98 2916.14 3249.22 2986.34 2907.61 2805.74 2616.56 2589.79
threshold=1.0000000180025095e-35 1.5000000000000002 1.0000000180025095e-35 24.493000030517582 59.058349609375007 0 582.50000000000011 214.50000000000003 236.97500000000002 206.23147422680415 114.57545071868584 1 26.500000000000004 2 211.82500457763675 115.70620248855086 311.97500000000008 3 289810.65625000006 4 44.000000000000007 5 6.5000000000000009 705.67498779296886 22.895883588388362 6 58.500000000000007 214.50000000000003 1.5000000000000002 7
decision_type=2 2 2 2 2 9 2 2 2 2 2 9 2 9 2 2 2 9 2 9 2 9 2 2 2 9 2 2 2 9
left_child=1 2 18 5 6 8 10 21 11 17 -2 13 16 29 -12 -16 -8 27 -1 20 -15 -3 23 24 -9 -26 -10 -5 -22 -4
right_child=4 7 3 9 -6 -7 12 22 26 -11 14 -13 -14 19 15 -17 -18 -19 -20 -21 28 -23 -24 -25 25 -27 -28 -29 -30 -31
leaf_value=0.37620465771974687 0.032907307400849892 0.4025196165252542 -0.011925132268993929 0.35787382743441137 0.43390144971744582 0.080073726749073232 0.72412511723760575 0.75260347185417298 0.43234706180751425 0.43860328460606601 0.11971150625848755 0.030700942830104945 -0.01668410490976718 0.70294802206294171 0.66162769341018213 0.20868222646317822 0.15662114945225716 0.17124244381934164 -0.0076081933999815722 -0.00079122480563116973 0.2083795540843188 0.29540254174412889 -0.037045772511746441 0.52571068346241423 0.30398339275673131 0.047328885559985656 0.21127248484311836 0.12468893891464333 0.73808153433644452 0.30982018508499565
leaf_weight=5136.07811749354 1427.5545049756765 13111.527151376009 72.902381721884012 2298.3325742892921 286.97214774414897 918.85371500253677 101.13481990620494 28.358073133975267 581.95894052833319 1474.5534799024463 1975.9734895005822 286.49175490438938 40.213298015296459 52.836595207452774 75.907412596046925 316.91116795688868 40.99047539383173 435.69134933501482 60.817003343254328 192.03794958069921 3235.3819151446223 1041.5925752334297 87.741372786462307 101.05747669190168 283.07547208666801 208.77484188973904 199.78942923247814 136.66997771337628 23.48271930962801 2159.7257301360369
leaf_count=13888 35378 29557 1660 13592 2270 19173 953 103 5185 3895 43045 5470 996 233 453 5645 794 4681 756 3993 52668 5976 1599 594 3246 3752 2841 2263 210 18489
internal_value=0.319777 0.343454 0.305313 0.27672 0.141451 0.230083 0.120357 0.387763 0.249854 0.359616 0.105333 0.233915 0.433168 0.243586 0.14898 0.296208 0.560451 0.319043 0.371713 0.207329 0.219364 0.39513 0.240708 0.279935 0.232189 0.202184 0.375848 0.343376 0.212196 0.299308
internal_weight=36393.4 32127.7 17265.6 12068.7 4265.66 7723.46 3978.69 14862.1 6804.61 4345.25 3796.35 6022.86 182.339 5736.37 2368.79 392.819 142.125 2870.69 5196.9 3503.74 3311.7 14153.1 709.007 621.266 520.208 491.85 781.748 2435 3258.86 2232.63
internal_count=283358 193824 148997 134353 89534 109922 87264 44827 90749 24431 84521 82723 2743 77253 49143 6098 1747 20536 14644 57104 53111 35533 9294 7695 7101 6998 8026 15855 52878 20149
cat_boundaries=0 3 5 6 8 53 55 57 61
cat_threshold=69969 2962241792 15 1293101135 4195384 4 1140982785 4194320 262144 0 2 0 536969216 0 0 0 134217728 2 0 0 0 1073758208 0 0 0 0 0 4194352 0 0 1073741824 65536 0 1048576 2048 0 0 256 0 0 4194304 32 278536 33587200 0 32768 100663296 16384 65536 0 0 8388608 134217728 89260035 4194352 1179652 1 262152 1140850752 0 1056768
is_linear=0
shrinkage=0.05


Tree=2
num_leaves=31
num_cat=9
split_feature=140 14 35 40 418 13 3 12 45 11 4 359 7 369 103 46 2 0 11 0 42 42 35 56 28 33 25 111 3 362
split_gain=30889 10898 8469.45 5100.92 4889.16 4686.98 4615.74 4116.7 4940.46 3764.97 3660.63 3290.35 3137.06 2998.03 2676.71 2968.02 2637.52 2508.17 2424.76 2277.86 2217.32 2178.15 2048.7 2133.7 1986.24 1902.6 1855.96 2023.46 2495.92 2423.55
threshold=1.0000000180025095e-35 1.5000000000000002 9.5000000000000018 52.500000000000007 0 4.5000000000000009 582.50000000000011 1 2 3 149.50000000000003 211.82500457763675 4 1105.8350219726565 1.5000000000000002 5 13111.500000000002 216.20500000000001 6 111.97000000000001 7 8 520.50000000000011 1.5000000000000002 185.50000000000003 79.770832061767592 1.5000000000000002 1.5000000000000002 268.50000000000006 803.02001953125011
decision_type=2 2 2 2 9 2 2 9 1 9 2 2 9 2 2 1 2 2 9 2 1 1 2 2 2 2 2 2 2 2
left_child=1 2 9 10 -4 13 11 25 14 12 -3 17 -1 18 15 -9 22 -2 -5 21 -20 -14 23 -13 -12 -6 -22 28 29 -28
right_child=6 3 4 5 7 -7 -8 8 -10 -11 24 16 19 -15 -16 -17 -18 -19 20 -21 26 -23 -24 -25 -26 -27 27 -29 -30 -31
leaf_value=0.30060262521491404 0.062465972929652593 0.1170758765354117 0.049784245611971228 0.37133797480668451 0.27064918910148239 0.27437264923765986 0.29023125923057136 0.26189103428268312 0.12242562019873345 0.17076947302128281 0.28597094432509496 0.16230241896342273 0.13881507625520034 0.49345635122291942 0.36045308476692495 0.11558959915068752 0.022735545044729643 0.16999445633186211 0.30405160635255374 0.2779630999905135 0.28009022664626054 0.23572656206247797 0.40246315400871541 0.53706300604557089 0.13971604140510915 0.12408990398055116 0.0098849475537714521 0.24756802439927858 0.15362194193678388 0.69068726159747518
leaf_weight=3474.5572758503258 3041.2855264730752 333.65166616812348 718.74124784767628 161.26662739738822 1756.9107392430305 2985.7801650837064 351.8542283475399 818.3978266119957 2866.1260344535112 1488.2270630300045 18636.667634818703 509.12036941945553 886.67785995826125 78.161715064197779 317.77931888774037 601.41905867308378 187.42786398902535 660.00275799632072 274.05936791375279 1618.0499135889113 266.9203242585063 1675.2258428670466 143.38291632384062 41.042701594531536 235.0680285692215 253.37825926020741 509.1132915392518 378.87310805171728 1560.2801389843225 13.416710071265696
leaf_count=10105 64305 1846 10745 295 9212 9080 2820 5326 33298 13233 29114 7210 10494 271 433 6034 3283 10892 1637 9900 1054 12811 681 195 2853 2444 6943 1451 15385 8
internal_value=0.234042 0.247974 0.216295 0.268495 0.176265 0.229173 0.115712 0.189648 0.162403 0.2484 0.281247 0.102311 0.262927 0.187548 0.229278 0.199919 0.189156 0.0816401 0.17999 0.230966 0.167918 0.202185 0.234131 0.19026 0.284149 0.250929 0.15486 0.141281 0.121947 0.0273655
internal_weight=46842.9 41908.7 16475.5 25433.3 7332.75 6227.87 4934.12 6614.01 4603.72 9142.74 19205.4 4582.26 7654.51 3242.09 1737.6 1419.82 880.974 3701.29 3163.93 4179.95 3002.66 2561.9 693.546 550.163 18871.7 2010.29 2728.6 2461.68 2082.81 522.53
internal_count=283358 193972 124035 69937 67492 36124 89386 56747 45091 56543 33813 86566 43310 27044 11793 11360 11369 75197 26773 33205 26478 23305 8086 7405 31967 11656 24841 23787 22336 6951
cat_boundaries=0 45 47 48 50 51 52 53 54 55
cat_threshold=0 0 0 0 0 0 0 0 0 0 0 0 0 0 0 0 8192 0 2048 0 0 0 1 0 536870912 1 0 18 0 0 0 537395216 310658176 65 0 75497472 0 0 0 1024 131072 0 0 0 131072 1091698688 134217872 2 1291976709 4194320 4 1 67110946 1 2
is_linear=0
shrinkage=0.05


Tree=3
num_leaves=31
num_cat=8
split_feature=140 13 29 408 426 0 4 0 1 29 426 178 12 411 25 45 31 1 12 427 25 426 28 6 4 40 236 40 27 46
split_gain=18873.2 7510.72 5897.96 5600.18 4714.5 3483.5 3644.9 2952.9 2854.09 5628.66 3235.27 2716.71 2695.54 2548.52 2486.85 2187.03 1879.07 1843.81 2207.47 1789.33 1766.67 1748.76 1736.78 1715.63 1679.91 1984.9 1656.43 1601.86 1867.64 1364.73
threshold=1.0000000180025095e-35 3.5000000000000004 10.500000000000002 0 114.74007444061964 140.52500000000003 149.50000000000003 149.96000000000001 1 3.5000000000000004 39.473771945275558 35.475000381469734 2 3 26.500000000000004 4 10.500000000000002 5 6 359.98862573234862 39.500000000000007 236.78521333333336 284.50000000000006 160.50000000000003 143.50000000000003 497.50000000000006 1.5000000000000002 68.500000000000014 313.50000000000006 7
decision_type=2 2 2 9 2 2 2 2 1 2 2 2 9 9 2 1 2 1 9 2 2 2 2 2 2 2 2 2 2 1
left_child=1 2 3 5 24 6 -1 26 10 20 -8 16 27 -11 -3 29 23 -9 -19 21 -10 22 -16 -6 25 -2 -5 -7 -29 -15
right_child=4 14 -4 7 11 12 8 17 9 13 -12 -13 -14 15 19 -17 -18 18 -20 -21 -22 -23 -24 -25 -26 -27 -28 28 -30 -31
leaf_value=0.028038512875151606 -0.052516972855499715 0.23150416368491722 0.10637026092587021 0.058278062525323908 0.019341694628115663 0.23717412748757372 0.14892877591907577 0.23986702868996229 0.20879001302530989 0.21480068400641464 0.22869300448063026 0.26039376048736002 0.068066973703847886 0.19253813701505731 0.18445542432404305 0.092158933013493857 0.060163070072656061 0.1888180991800581 0.0014132485433057257 -0.019633049324457058 -0.020767955292739247 0.29660713788951371 0.022985056112886704 0.15660141418151408 0.026319871504541899 1.0150809891165531 0.21524762825284893 0.12094025584072568 0.27543570228128983 0.10294248420950454
leaf_weight=366.92963106930256 8.1376781947910803 14588.102712534368 2350.3480232618749 1435.9429126791656 255.8195470161736 6941.3354492150247 1609.9332264997065 630.35837525874376 5615.0821945890784 867.52122073248029 6043.071302626282 364.39418277144432 301.78551098704338 1230.5845135450363 1959.446155808866 2858.6916711889207 1022.9574768915772 389.84450953826308 269.36858496814966 109.48682831227779 85.082745689898729 316.73745701834559 182.00019977614284 2067.7655400857329 1734.8061660379171 9.3630802147090417 190.34611656144261 651.47525930032134 279.55464198440313 649.27386402711272
leaf_count=3080 187 12755 24580 17820 4496 18622 9251 1315 17782 3883 14192 1680 2571 9353 6149 30113 18807 2036 3108 883 1191 284 2017 27626 36561 29 244 5012 1315 6416
internal_value=0.18706 0.196715 0.182682 0.188579 0.0988296 0.195625 0.184123 0.121041 0.187143 0.170227 0.211637 0.130747 0.223059 0.134804 0.223518 0.119453 0.11663 0.177961 0.113406 0.178142 0.205364 0.186951 0.170732 0.14149 0.031237 0.518659 0.0766503 0.228624 0.16733 0.161593
internal_weight=55385.5 49922.3 32766.5 30416.2 5463.24 27500.3 19326.2 2915.86 18959.2 11306.2 7653 3710.94 8174.15 5606.07 17155.8 4738.55 3346.54 1289.57 659.213 2567.67 5700.16 2458.18 2141.45 2323.59 1752.31 17.5008 1626.29 7872.37 931.03 1879.86
internal_count=283358 193972 171884 147304 89386 122781 95261 24523 92181 68738 23443 52609 27520 49765 22088 45882 50929 6459 5144 9333 18973 8450 8166 32122 36777 216 18064 24949 6327 15769
cat_boundaries=0 3 4 6 11 12 13 15 16
cat_threshold=4563 1982871812 31 9 1091698697 8388752 41943040 72 278528 0 2214592640 2 10 131586 8388608 1
is_linear=0
shrinkage=0.05


Tree=4
num_leaves=31
num_cat=13
split_feature=79 11 23 409 7 426 360 40 182 13 411 408 11 2 428 29 12 46 408 21 30 3 1 408 0 45 132 40 11 428
split_gain=13359.1 6005.38 5397.4 3836.18 3918.25 3433.76 2296.26 2192.7 2190.77 2056.84 1889.76 1645.77 1568.66 1818.72 1509.77 1495.56 1526.42 1749.69 1462.46 1459.63 1397.15 1352.86 1349.65 1311.43 1541.24 1315.58 1325.23 1258.75 1908.4 1256.39
threshold=1.0000000180025095e-35 0 1.5000000000000002 1 2 114.74007444061964 35.621299743652351 64.500000000000014 15.078999996185305 9.5000000000000018 3 4 5 10805.500000000002 -0.30903684774669532 65.500000000000014 6 7 8 8.5000000000000018 29.500000000000004 537.50000000000011 9 10 149.96000000000001 11 1.5000000000000002 95.500000000000014 12 1.1859480952599164
decision_type=2 9 2 9 9 2 2 2 2 2 9 9 9 2 2 2 9 1 9 2 2 2 1 9 2 1 2 2 9 2
left_child=1 2 3 18 10 -2 12 -4 15 19 27 22 13 14 -7 16 17 20 -1 -9 -6 23 -12 25 -25 26 -19 -5 -29 -16
right_child=5 -3 7 4 8 6 -8 9 -10 -11 11 -13 -14 -15 29 -17 -18 21 -20 -21 -22 -23 -24 24 -26 -27 -28 28 -30 -31
leaf_value=0.10515924545413946 0.028524819999712916 0.015579493209378532 0.18965767544956058 0.18802512862240095 0.11818374956268343 0.082550706970207069 0.23062303574358639 0.11926800036575212 0.17435172170401281 0.19390481158718589 0.19481411702147303 -0.019459006462955158 0.01116364408510637 0.066454373845635351 0.19344518108702158 0.019356684443757839 0.019045630598767307 0.11301426231832748 0.00057682710642608206 0.21818299903358196 0.030605267195374482 0.095940037538507036 0.069660129729064921 0.010633718359765846 0.1825393580132933 0.17461795693777626 0.26074205491993152 0.17207004467884085 0.013768569733095246 0.050261651138641464
leaf_weight=1370.6930441334844 1824.7369134426117 685.41839620098472 21161.767483986914 10629.043505512178 1886.1085771843791 699.11994481831789 364.73479310795665 3096.2097169905901 3197.3222613036633 2079.0314732082188 518.74880661070347 200.9943516291678 460.50188923999667 1343.3775368519127 1114.5723083764315 310.94228980317712 315.86124642565846 1788.6429869346321 451.35530561953783 424.03273925557733 600.34952640905976 1205.5730254091322 430.23543537408113 343.19349533319473 210.27228016406298 4538.5942170098424 165.89254369959235 683.0219657048583 277.59552202373743 177.62331160157919
leaf_count=9167 36840 6988 23538 24633 14754 10052 1179 16642 8114 3420 1991 2715 7440 20559 11102 4215 3459 15223 5747 249 7127 9152 3728 4477 642 22428 597 2607 2250 2323
internal_value=0.156749 0.164265 0.166056 0.151191 0.155896 0.0857093 0.110793 0.182296 0.137694 0.154472 0.176578 0.111699 0.0992768 0.111078 0.14174 0.127502 0.130544 0.133682 0.0793968 0.131183 0.0970381 0.144885 0.139392 0.153258 0.0745962 0.159603 0.125553 0.182914 0.128259 0.173763
internal_weight=62555.6 56570.9 55885.5 29124.4 27302.4 5984.67 4159.93 26761 14562.8 5599.27 12739.6 1149.98 3795.19 3334.69 1991.32 11365.4 11054.5 10738.6 1822.05 3520.24 2486.46 8252.17 948.984 7046.6 553.466 6493.13 1954.54 11589.7 960.617 1292.2
internal_count=283358 193863 186875 143026 128112 89495 52655 43849 90188 20311 37924 8434 51476 44036 23477 82074 77859 74400 14914 16891 21881 52519 5719 43367 5119 38248 15820 29490 4857 13425
cat_boundaries=0 2 6 7 13 16 18 20 21 24 25 28 29 31
cat_threshold=1297321519 205553849 412354560 2651066611 2416665473 1 5 2189426762 1090519112 1081344 16897 3221225472 8 4368 268446720 22 2215773217 138412056 1225916419 8388752 2 2151678080 28312839 2 2 2147483665 606087424 13 1 1277984 138412064
is_linear=0
shrinkage=0.05


Tree=5
num_leaves=31
num_cat=7
split_feature=119 13 25 357 418 12 426 0 361 409 11 25 418 40 427 426 125 40 209 68 426 426 12 428 30 3 55 51 411 424
split_gain=10424.1 5137.09 4630.5 6255.42 3342.38 3192.22 2811.02 2628.47 2401.83 1943.78 1907.77 1757.71 1639.76 1400.53 1579.23 1903.45 1543.21 1223.34 1211.7 1160.14 1699.13 1146.93 1131.54 1117.72 1104.69 1102.3 1061.82 1148.8 1055.53 1041.74
threshold=1.0000000180025095e-35 3.5000000000000004 1.0000000180025095e-35 10.013800144195558 0 1 114.74007444061964 169.96000000000001 59.058349609375007 2 3 13.500000000000002 4 70.500000000000014 200.86383630068289 71.866447368421063 2.5000000000000004 361.50000000000006 289810.65625000006 1.0000000180025095e-35 115.1482378041879 120.66830630899271 5 -0.42867194158971217 27.500000000000004 127.50000000000001 1.5000000000000002 1.5000000000000002 6 28.500000000000004
decision_type=2 2 2 2 9 9 2 2 2 9 9 2 9 2 2 2 2 2 2 2 2 2 9 2 2 2 2 2 9 2
left_child=1 2 18 4 -4 7 26 9 19 28 13 -3 29 -5 15 -15 21 -16 -1 20 -8 -17 -12 -22 -9 -13 -2 -28 -6 -11
right_child=6 11 3 10 5 -7 8 24 -10 12 22 25 -14 14 17 16 -18 -19 -20 -21 23 -23 -24 -25 -26 -27 27 -29 -30 -31
leaf_value=0.16080469597215971 0.015933202998194309 0.16995658908158129 0.19182984214293886 0.15806835474403791 0.14153902438683144 -0.0041581471828927878 0.46220289601699954 0.15687559039286747 0.16618752796355402 0.22525779440903843 0.11124763865080144 0.046100767862398279 0.0092175323572225663 0.19684327825129713 0.099318604192586521 -0.0041317407527494713 0.28928646166752914 0.20083472537965585 -0.038236937163869895 0.06019172928278696 -0.0036387047617989715 0.10100954348533407 0.0014902642961854267 0.13870117478278723 0.07737010494439682 0.14262414890015293 0.42841036842426511 -0.052823379518975901 0.018305177981421651 0.079611177533036204
leaf_weight=10720.72725148499 1786.8200066871941 15897.698408022523 888.28496624901891 10927.523662362248 1851.2380345053971 832.95793954282999 35.931645210832357 2180.2754386514425 954.74211082607508 124.98324098810554 1781.1956543289125 313.81596382707357 883.09525094553828 287.37568901851773 503.19260496646166 638.87709153443575 65.081962857395411 723.41526165232062 77.011338211596012 2664.225665923208 170.46948815137148 436.65356875211 280.88305728137493 722.26925541460514 546.39378794655204 5147.6626175828278 32.382630776613951 20.0984862819314 208.75032918900251 6937.2407258339226
leaf_count=14689 36307 8629 1199 20604 9358 10988 184 10908 4316 311 6957 1652 10446 698 2723 5590 30 1706 752 37838 2761 2434 2114 7828 4994 11828 180 433 2716 62372
internal_value=0.135434 0.141676 0.131295 0.121218 0.0975028 0.0911173 0.074602 0.0973488 0.0956975 0.0855655 0.143128 0.16155 0.0739967 0.150044 0.117579 0.0818367 0.0528609 0.15919 0.159385 0.0769661 0.12509 0.0385545 0.0963765 0.111521 0.140944 0.137078 0.0224439 0.244114 0.1292 0.0820725
internal_weight=68641.3 62254.3 40895.2 30097.4 14453.2 13564.9 6386.94 12732 4547.64 10005.3 15644.2 21359.2 7945.32 13582.1 2654.6 1427.99 1140.61 1226.61 10797.7 3592.9 928.67 1075.53 2062.08 892.739 2726.67 5461.48 1839.3 52.4811 2059.99 7062.22
internal_count=283545 193698 171589 156148 113292 112093 89847 101105 52927 85203 42856 22109 73129 33785 13181 8752 8054 4429 15441 48611 10773 8024 9071 10589 15902 13480 36920 613 12074 62683
cat_boundaries=0 45 47 51 53 97 99 105
cat_threshold=16384 0 0 134217728 32768 0 0 0 0 2 0 0 0 0 0 0 0 0 0 2097168 0 0 0 1073741824 0 0 65536 0 1107296256 256 160 0 4194304 96 8 32769 0 0 33554432 8388608 2 2 16777216 2097156 134217728 1163008523 25165944 1074790400 16850944 327872 4 1145276985 4194320 262144 0 2 0 536936448 0 33554432 0 0 0 262144 0 0 1073758208 8 3145728 0 0 1073742336 32 0 0 1073741824 65536 0 1048576 0 0 0 0 6148 0 0 524288 262144 34078720 1024 32768 83886080 16384 65536 0 0 8388608 17830921 32 2156134464 131072 49152 16385 0 8
is_linear=0
shrinkage=0.05


Tree=6
num_leaves=31
num_cat=6
split_feature=119 13 26 357 418 12 426 409 0 361 427 27 6 408 25 102 214 27 411 418 424 35 3 426 2 2 68 2 84 35
split_gain=8325.76 4597.28 4281.55 4867.01 3340.18 2885.76 2174.08 1849.91 2023.36 1759.17 1448.78 1625.89 1977.97 1295.48 1284.88 1190.27 1137.78 1127.32 1084.6 1027.58 1166.57 995.786 988.693 1001.89 1476.19 2301.37 1433.84 1272.43 1337.07 1183.3
threshold=1.0000000180025095e-35 4.5000000000000009 1.0000000180025095e-35 38.98500061035157 0 1 114.74007444061964 2 76.978000000000023 59.058349609375007 176.09582494320765 52.500000000000007 132.50000000000003 3 14.500000000000002 1.5000000000000002 5537.5000000000009 80.500000000000014 4 5 8.5000000000000018 440.50000000000006 582.50000000000011 123.8747744382906 14259.500000000002 14170.500000000002 1.0000000180025095e-35 4516.5000000000009 1.0000000180025095e-35 1.5000000000000002
decision_type=2 2 2 2 9 9 2 9 2 2 2 2 2 9 2 2 2 2 9 9 2 2 2 2 2 2 2 2 2 2
left_child=1 2 -1 4 -4 7 -2 16 19 22 11 -5 -13 -12 -3 21 -6 18 -10 -9 -21 -14 23 24 25 26 -8 28 -28 -25
right_child=6 14 3 10 5 -7 9 8 17 -11 13 12 15 -15 -16 -17 -18 -19 -20 20 -22 -23 -24 29 -26 -27 27 -29 -30 -31
leaf_value=0.14085304402654458 0.020830898005928526 0.15251563651703434 0.17090368946933532 0.11951015467633475 0.12228115737866885 -0.0056223308083283643 0.20122127782458873 0.064344358205132471 -0.010226668222090793 0.14093313508336733 0.14259876273340136 0.19628029403545866 -0.016593526769810702 0.048260393632541247 0.12280773399279793 0.26499063381067917 -0.023667290469910715 0.050966487837549139 0.11352355470787621 0.10125731205423237 -0.040327437532325393 0.11896538346868113 0.14292912031332158 0.081964984353726789 -0.044314349278039941 0.64944015702979518 -0.053632618659236013 0.034054124277473487 0.33473383343195806 0.010410671128810736
leaf_weight=12963.416988901794 1876.0979964956641 14710.070434246212 1165.1713230535388 5936.5946432724595 3956.3103007562459 879.83839857578278 298.59894688799977 5046.7927794605494 190.95862689614296 1066.2727691866457 9388.7795758806169 200.15445312485099 704.16607830300927 415.54702662676573 4836.2723041474819 48.095832820981741 138.20046666637063 1028.7482427954674 4526.3664635717869 203.25586088374257 511.85980610921979 167.74367314949632 398.03639328107238 1018.5698955915868 153.21837785467505 20.320509344339371 31.104442309588194 502.67843708395958 77.086205214262009 1335.1401046440005
leaf_count=15824 36920 5403 1371 13361 18539 11306 2233 40648 2497 4316 18212 540 5901 2034 10433 35 1966 9720 27299 1288 6418 903 2329 12941 2588 92 517 7104 574 20233
internal_value=0.119416 0.124757 0.116354 0.10715 0.0887959 0.0828376 0.066603 0.0878263 0.0773292 0.0841244 0.126361 0.109085 0.0538337 0.138795 0.145165 0.0228434 0.117069 0.0983908 0.108733 0.0564596 -8.39207e-05 0.00948618 0.0683285 0.0596883 0.099487 0.123184 0.111425 0.0675323 0.22308 0.0413759
internal_weight=73795.5 67018.3 47472 34508.6 17647.5 16482.3 6777.12 15602.5 11508 4901.03 16861.1 7056.75 1120.16 9804.33 19546.3 920.006 4094.51 5746.07 4717.33 5761.91 715.116 871.91 3834.75 3436.72 1083.01 929.789 909.468 610.869 108.191 2353.71
internal_count=283545 193698 177862 162038 121052 119681 89847 108375 87870 52927 40986 20740 7379 20246 15836 6839 20505 39516 29796 48354 7706 6804 48611 46282 13108 10520 10428 8195 1091 33174
cat_boundaries=0 45 47 50 53 58 99
cat_threshold=262144 0 0 134217728 536903680 0 0 0 0 2 0 0 0 0 0 0 0 0 0 16 0 0 0 1073741824 0 1048576 67584 0 1107296256 256 160 0 4194304 524384 8 32769 0 32768 50331648 0 2 2 16777216 2097156 134217728 1163008523 293601400 3254812672 16851012 2149941450 2147484097 2164269316 66 33554504 1140850688 33603584 8192 1179648 0 0 2 0 65536 0 37748736 0 0 0 262176 0 0 1073741824 8 2097152 0 2 1073741824 2097184 0 0 0 589824 0 131072 0 0 0 128 6144 0 0 0 262144 33554432 1024 0 67108864 17408 65536
is_linear=0
shrinkage=0.05


Tree=7
num_leaves=31
num_cat=15
split_feature=12 357 409 45 13 26 0 11 11 426 418 409 25 411 426 44 427 427 11 418 409 411 6 11 416 428 177 69 25 334
split_gain=7101.51 6016.43 3062.08 2495.8 2308.58 1675.83 1663.86 1786.12 1637.28 1608.51 1603.42 1662.47 1425.66 1184.8 1059.38 1049.93 948.839 888.153 886.555 875.064 845.051 833.232 830.725 824.532 793.432 717.173 709.223 690.334 687.987 656.91
threshold=0 70.020000457763686 1 2 1.5000000000000002 1.0000000180025095e-35 250.02500000000003 3 4 101.22135389958289 5 6 102.50000000000001 7 101.77272247551504 8 101.2509721903353 179.73945018633967 9 10 11 12 223.50000000000003 13 14 -0.29920235250500299 150.2070007324219 1.0000000180025095e-35 49.500000000000007 2.5000000000000004
decision_type=9 2 9 1 2 2 2 9 9 2 9 9 2 9 2 1 2 2 9 9 9 9 2 9 1 2 2 2 2 2
left_child=4 2 -2 9 5 -1 7 25 12 26 -7 13 14 -12 16 17 28 -9 -15 -13 29 -17 -14 -8 -16 -5 -4 -19 -3 -10
right_child=1 8 3 6 -6 10 23 15 20 -11 11 19 22 18 24 21 -18 27 -20 -21 -22 -23 -24 -25 -26 -27 -28 -29 -30 -31
leaf_value=0.12494575805149824 0.13302816016427046 0.1197347425816282 0.040909816685497542 0.062400754025456376 0.13243933134411795 0.18539228535514718 0.11012688990528173 0.039082577936986163 0.095137434974173096 0.10977572371138632 0.1620256053174832 0.16406813720553881 0.11210991366328536 0.10495724219651839 -0.028741670001395821 0.09319104043639255 0.04989247966798728 0.17270381981531455 0.035032626607576819 0.031064672461345672 -0.04453085307939296 0.021810405601674035 -0.020184359926332052 0.045138154445635389 0.12666625093804387 0.1086530856476168 0.2367516166676541 0.075490905464281333 -0.058819537207505004 0.002788972061566748
leaf_weight=4838.6872701644897 2249.1341127082705 1581.3303460255265 1271.1644928567111 1722.8736570626497 24198.218180794269 361.42463894188404 2195.2950644865632 2151.9060194343328 878.15050430223346 5264.3135074302554 632.60273243486881 124.51726314797997 201.68623209372163 1434.7204711176455 82.585148237645626 438.18067878857255 907.01898314803839 203.51379839330912 710.72635830938816 1860.6191756054759 169.04799868166447 5068.0833929218352 288.26485060155392 688.76395774632692 14910.477471657097 1631.9929603636265 47.973390825092793 1778.8990031257272 55.854017704725266 246.6585712954402
leaf_count=5299 3126 3616 8862 16580 14920 439 13389 15638 2763 24412 3164 228 798 7326 528 2710 4331 896 5103 15942 1117 70378 2475 5038 28663 12324 75 11155 564 1686
internal_value=0.106876 0.0934928 0.0771718 0.0714881 0.124063 0.103843 0.0607887 0.0531641 0.114416 0.097404 0.0839167 0.0756688 0.118332 0.100788 0.120748 0.0420764 0.0909158 0.0611778 0.0820632 0.0401878 0.0584878 0.0276494 0.034274 0.0951448 0.12581 0.0846481 0.048032 0.0854707 0.113643 0.0742265
internal_weight=78194.7 44033.2 24712.1 22463 34161.5 9963.3 15879.5 12995.4 19321.1 6583.45 5124.61 4763.19 18027.2 2778.05 17537.3 9640.58 2544.2 4134.32 2145.45 1985.14 1293.86 5506.26 489.951 2884.06 14993.1 3354.87 1319.14 1982.41 1637.18 1124.81
internal_count=283545 231124 184583 181457 52421 37501 148108 129681 46541 33349 32202 31763 40975 15593 37702 100777 8511 27689 12429 16170 5566 73088 3273 18427 29191 28904 8937 12051 4180 4449
cat_boundaries=0 2 5 6 8 10 54 58 63 64 66 108 111 117 119 120
cat_threshold=1095897600 276824240 17860608 3759882344 10493968 2 1275143683 134218753 3289615403 4194321 0 0 0 134217728 536903680 0 134217728 0 0 2 0 0 0 1073741824 0 0 32768 0 0 32 0 0 0 0 0 1048576 65536 0 33554432 0 128 0 4194304 64 262152 32768 0 32768 0 0 0 0 0 4 3254829056 587276300 2166718666 5 8388616 0 49152 16385 2147483648 5 1090650117 48 0 0 0 0 65536 0 33554432 0 0 8388608 0 0 0 536887296 0 2097152 0 2 0 2097168 0 0 1073741824 65536 0 0 0 0 0 0 4096 0 0 0 0 34078720 0 0 100663296 0 0 2 4098 139520 32864 50331656 1090519112 1048576 512 0 1 84051969 138543128 1
is_linear=0
shrinkage=0.05


Tree=8
num_leaves=31
num_cat=10
split_feature=12 29 409 13 428 26 11 343 426 418 409 408 97 18 427 208 418 13 4 12 11 69 115 427 28 426 40 78 330 416
split_gain=6451.31 5188.4 3046.31 2289.72 2187.3 1969.62 1534.9 1440.14 1390.66 1389.22 1429.86 1342.09 1191.56 1128.75 1039.77 1085.47 1012.69 883.801 795.159 909.742 795.044 783.366 739.917 944.677 721.823 772.975 867.302 755.117 716.561 652.535
threshold=0 2.5000000000000004 1 2.5000000000000004 -0.30903684774669532 1.0000000180025095e-35 2 2.5000000000000004 101.77272247551504 3 4 5 1.0000000180025095e-35 71.500000000000014 130.05040566563261 1130.9949951171877 6 6.5000000000000009 184.00000000000003 7 8 1.5000000000000002 1.5000000000000002 51.874652315257414 304.50000000000006 115.04726655697246 139.50000000000003 1.5000000000000002 1.0000000180025095e-35 9
decision_type=9 2 9 2 2 2 9 2 2 9 9 9 2 2 2 2 9 2 2 9 9 2 2 2 2 2 2 2 2 1
left_child=3 8 -3 5 7 -1 12 14 20 -7 11 -11 24 28 -4 -16 -12 21 -13 -20 22 -8 23 -2 25 26 -6 -26 -10 -27
right_child=1 2 4 -5 6 9 17 -9 13 10 16 18 -14 -15 15 -17 -18 -19 19 -21 -22 -23 -24 -25 27 29 -28 -29 -30 -31
leaf_value=0.11666549323166416 0.10918954780606148 0.12320549120443161 0.013025624955021547 0.12363549004201664 0.08864529451928721 0.15908094325933947 0.033609704273044258 0.11677471329151878 0.10405158947436013 0.13710146895674497 0.1132742702258917 0.046964770611613166 0.052004275927529021 -0.023515537142137707 0.055701178862282402 -0.044787504461159283 0.021924499448410597 0.11767632946638876 0.052294959911619643 0.11683018906404344 -0.0036777934067030618 0.16811301758563474 0.14209446519677008 0.047359140448319015 0.03384832853090932 -0.009954397768649233 0.017620526748228539 0.44308928602828718 0.12651732286461168 0.10936680343389323
leaf_weight=7273.9407158046961 1042.5486105903983 2503.5014140084386 2387.3105908222497 20629.205895088613 2321.7988465055823 529.27174898609519 2979.657060071826 680.2855360917747 9900.7091452851892 1139.7048703879118 364.4288501739502 1578.2497136890888 2133.4792061634362 154.9604176543653 6391.6136104352772 280.5294167175889 1693.3951824679971 397.75789284333587 950.41063949093223 1498.6021940335631 300.55789861083031 112.33384419232607 449.72172007337213 1516.1464098766446 613.02702170982957 116.83003338798881 527.47298674285412 11.483010821044443 5532.9056645669043 5949.2427251823246
leaf_count=6367 2249 3304 26060 7940 12420 540 22927 1197 23697 4216 1424 10356 26678 1217 54446 4061 12502 1706 4714 4362 1763 419 274 7792 5657 1168 4684 62 5685 23658
internal_value=0.0967378 0.0843341 0.0704543 0.11279 0.0650755 0.0979763 0.0769779 0.0466124 0.104508 0.0804443 0.0743605 0.0885119 0.0857106 0.110757 0.0413438 0.0514761 0.0385716 0.0473854 0.0744557 0.092476 0.0750685 0.0384963 0.0826731 0.0725521 0.0933385 0.0969786 0.0754968 0.0413731 0.112105 0.107069
internal_weight=81961.1 46303.9 27406.3 35657.2 24902.8 15028 15163.1 9739.74 18897.5 7754.06 7224.79 5166.97 11673.3 15588.6 9059.45 6672.14 2057.82 3489.75 4027.26 2449.01 3308.97 3091.99 3008.42 2558.7 9539.85 8915.34 2849.27 624.51 15433.6 6066.07
internal_count=283545 231124 188447 52421 185143 44481 99379 85764 42677 38114 37574 23648 74327 30599 84567 58507 13926 25052 19432 9076 12078 23346 10315 10041 47649 41930 17104 5719 29382 24826
cat_boundaries=0 2 5 7 51 54 57 102 104 106 107
cat_threshold=1095897600 276824240 17860610 3759882540 10494068 3422718467 146800729 0 0 0 134217728 32768 0 134217728 0 0 2 0 0 0 1073741824 0 0 32768 0 0 0 0 0 0 1073741824 0 1048576 0 0 33554432 0 0 0 4194304 524384 262152 32769 0 0 33554432 0 0 2 16777216 4 3254833152 50405376 2435154122 2164265377 1015035909 65 262144 0 0 0 536936448 0 33554432 0 0 8388608 0 0 0 536887296 8 2097152 0 2 0 2097200 0 0 1073741824 65536 0 0 65536 0 0 256 4224 0 0 0 0 34078720 0 32768 67108864 0 0 0 0 10485760 134217728 1048576 8388608 202571777 12582912 1
is_linear=0
shrinkage=0.05


Tree=9
num_leaves=31
num_cat=9
split_feature=409 357 13 26 418 11 119 14 0 418 424 423 427 27 45 18 427 11 1 45 190 29 11 33 366 426 427 26 423 87
split_gain=5957.58 4919.04 2067.19 1944.65 1935.5 1860.42 1768.75 1355.6 1453.22 1145.62 1452.48 1094.36 983.908 1070 1180.89 894.771 878.516 876.934 868.123 921.054 781.398 768.885 766.987 759.415 762.389 749.874 748.533 717.757 698.836 706.971
threshold=0 59.028949737548835 2.5000000000000004 1.0000000180025095e-35 1 2 1.0000000180025095e-35 3.5000000000000004 140.52500000000003 3 11.500000000000002 2.5000000000000004 176.09582494320765 10.500000000000002 4 71.500000000000014 70.73566115634992 5 6 7 1.0000000180025095e-35 55.500000000000007 8 38.979166030883796 17.56519985198975 119.2856980392157 127.11213842713119 84.500000000000014 19.500000000000004 1.5000000000000002
decision_type=9 2 2 2 9 9 2 2 2 9 2 2 2 2 1 2 2 9 1 1 2 2 9 2 2 2 2 2 2 2
left_child=1 6 3 -2 -5 9 7 8 18 20 -11 -8 13 -3 -15 -14 -13 -10 19 25 23 -21 26 24 -6 -1 -18 -9 29 -28
right_child=2 12 -4 4 5 -7 11 27 17 10 -12 16 15 14 -16 -17 22 -19 -20 21 -22 -23 -24 -25 -26 -27 28 -29 -30 -31
leaf_value=0.013116188610194108 0.10875493703345772 0.095696675471341197 0.1146384815939146 0.13143490181155373 0.091001991424403753 -0.005209322822828686 0.0099184835075382879 0.10127641083053135 0.092791140837960459 0.095849945115739091 -0.028821207810457668 0.44548161774881145 0.10342358271175958 0.0046624980323073783 0.075079945978268725 -0.022635281166095436 -0.017166855642905553 0.037932801445451927 0.0058919841567108486 0.072387066635667976 0.14013487293044111 -0.0097208883023098564 0.014475245397971208 0.029607416975467274 0.013132595666234488 0.057023131614628735 0.090419112803556356 0.014104125741770482 0.042298968521689295 0.27948666605782607
leaf_weight=1714.3168447501957 7716.0027077123523 4645.4194810576737 19946.630340185016 1260.8255582936108 3771.9083310849965 866.35239815339446 2159.9768236465752 3692.0705125443637 4678.3963751010597 396.97001963108778 567.76620588824153 14.331016313284634 14153.002060633153 779.09765703603625 2524.6886193491518 142.18261670321226 239.78001295030117 918.81470430269837 918.97148363664746 6198.8787623271346 528.37604542821646 298.86872582510114 968.67237766459584 743.58799015730619 342.90343916416168 2247.0903481021523 1432.6454713791609 252.26969058811665 965.93499885126948 51.210678391158581
leaf_count=14409 6840 8298 7227 819 16705 8424 31982 8283 17006 1943 5647 164 24459 4625 9516 993 4654 5304 10213 29795 511 2710 13610 4731 1273 14407 16323 997 11330 347
internal_value=0.0883774 0.0769386 0.103835 0.0905926 0.074064 0.0637719 0.062508 0.0692965 0.0631612 0.0731744 0.0222479 0.0381595 0.0943282 0.0802265 0.0584741 0.10217 0.0547691 0.0840194 0.0529005 0.0569707 0.0822369 0.0686105 0.0532385 0.0761094 0.0845128 0.0380222 0.0668969 0.0957011 0.075398 0.0969442
internal_weight=85137.9 48996.6 36141.3 16194.7 8478.69 7217.86 26752.2 20919.7 16975.3 6351.51 964.736 5832.55 22244.4 7949.21 3303.79 14295.2 3672.57 5597.21 11378.1 10459.2 5386.78 6497.75 3658.24 4858.4 4114.81 3961.41 2689.57 3944.34 2449.79 1483.86
internal_count=283545 229425 54120 46893 40053 39234 181534 103124 93844 30810 7590 78410 47891 22439 14141 25452 46428 22310 71534 61321 23220 32505 46264 22709 17978 28816 32654 9280 28000 16670
cat_boundaries=0 3 47 49 94 95 97 98 99 101
cat_threshold=697316354 2583958579 1342899077 0 0 0 134217728 32768 0 134217728 0 0 2 0 0 0 1073741824 0 0 32768 0 0 16 0 0 0 1073741824 0 1048576 65536 0 33554432 0 0 0 4194304 524384 262152 557057 0 32768 33554432 1048576 2 2 16777216 2097156 1163003395 4194424 134496256 0 0 0 553713664 0 33554432 0 0 8388608 0 0 0 536887296 8 2097152 0 2 1073742336 2097184 0 0 1073741824 589824 0 0 0 0 0 256 4256 0 0 0 0 33554432 0 0 67108864 16384 65536 0 0 8388608 134217728 1 1157792265 138549264 25 1 3222406169 134217752
is_linear=0
shrinkage=0.05


Tree=10
num_leaves=31
num_cat=12
split_feature=140 13 26 330 411 11 427 418 25 12 7 40 426 2 369 11 10 409 5 31 25 27 11 44 12 428 426 131 111 409
split_gain=5805.87 3716.3 3021.56 3280.62 1855.53 1727.46 1893.22 1288.47 1238.7 1032.31 1019.85 1149.11 993.081 964.841 959.126 962.204 926.741 973.287 919.426 882.263 847.817 847.23 838.616 838.188 926.206 806.382 839.857 1010.77 763.914 754.502
threshold=1.0000000180025095e-35 4.5000000000000009 1.0000000180025095e-35 1.0000000180025095e-35 0 1 192.76198511448851 2 26.500000000000004 3 4 76.500000000000014 40.580276281760604 12696.000000000002 58.960000991821296 5 151.50000000000003 6 7 3.5000000000000004 22.500000000000004 181.50000000000003 8 9 10 1.7103738758597353 107.83386356340291 1.0000000180025095e-35 1.5000000000000002 11
decision_type=2 2 2 2 9 9 2 9 2 9 9 2 2 2 2 9 2 9 9 2 2 2 9 1 9 2 2 2 2 9
left_child=1 2 -1 4 5 9 7 -7 -3 10 11 -4 -5 18 15 16 17 -12 -2 -10 25 -15 -20 -8 -25 26 -19 -28 -13 -9
right_child=13 8 3 12 -6 6 23 29 19 -11 14 28 -14 21 -16 -17 -18 20 22 -21 -22 -23 -24 24 -26 -27 27 -29 -30 -31
leaf_value=0.097788407325607452 0.017858057408343817 0.10839434250791746 0.10198857829336135 0.019006314406548833 -0.0038767357102573092 0.13955318656572416 0.083811890074449558 0.033947799712467974 0.10183404806085189 -0.016419808481497069 0.086617258670203645 0.010726424164807742 0.10333958840069167 0.030768508739700336 0.10384210418317548 0.13054790876629327 0.10739669296539443 0.024854939644095939 0.070746840335276895 0.05386646009047396 -0.022374119866592136 -0.041068879792033192 -0.0044886105707581826 0.10042994764149787 0.025715183736742021 0.11535845165757973 0.098532125471377838 0.044624696547828566 0.12641463585145071 -0.023518204918407455
leaf_weight=15630.227795593441 1503.3489489853382 18514.948288656771 5791.6216724477708 364.68154094368219 958.17377468943596 261.32896557822824 4421.2280756011605 5307.2367194257677 1865.2158171012998 298.72661752998829 2052.7155176512897 608.18866140395403 8160.4703186228871 1708.5644595995545 1747.5998771563172 522.72897041216493 960.89790828153491 2603.7462428621948 3954.4883848577738 1972.211242698133 411.17183434590697 540.19758088886738 416.01399432495236 558.38135023415089 1630.0729954019189 461.83476727455854 1255.3766713663936 2829.2810462191701 186.43620792031288 635.79815468192101
leaf_count=15850 18755 7882 13326 1536 10195 319 13682 31016 2215 2872 6654 3085 9249 20075 3198 1181 3579 16909 37013 5790 3137 8365 5403 2055 11899 1502 4694 16778 93 5130
internal_value=0.0816399 0.0857288 0.0790194 0.0720392 0.0649924 0.0670006 0.0525444 0.0327488 0.103036 0.0763579 0.077792 0.0941098 0.0997321 0.0413627 0.0693586 0.0639908 0.0605202 0.055898 0.0520252 0.0771815 0.0473813 0.0135117 0.0635915 0.0712057 0.0451487 0.0514589 0.0470466 0.0611926 0.0378694 0.0277708
internal_weight=88132.9 80010.3 57657.9 42027.7 33502.5 32544.4 12814 6204.36 22352.4 19730.3 19431.6 6586.25 8525.15 8122.61 12845.4 11097.8 10575 9614.13 5873.85 3837.43 7561.41 2248.76 4370.5 6609.68 2188.45 7150.24 6688.4 4084.66 794.625 5943.03
internal_count=283437 193826 177939 162089 151304 141109 64101 36465 15887 77008 74136 16504 10785 89611 57632 54434 53253 49674 61171 8005 43020 28440 42416 27636 13954 39883 38381 21472 3178 36146
cat_boundaries=0 6 8 53 55 56 58 62 63 65 66 68 71
cat_threshold=2172651592 21102656 2148581376 1073758725 3221225472 9 1145276963 176 134479872 0 2 0 0 0 0 0 0 0 262144 0 0 1073758208 0 0 0 2 0 0 0 0 0 2621952 0 1048576 0 0 2048 0 4096 0 0 0 262144 32768 0 0 0 1048576 0 2 0 0 402653184 1094844939 8388656 5 4423681 16 33587200 940122632 2539848 4 8 2215772209 138412048 5 17831936 8388624 4096 151594240 1342537752
is_linear=0
shrinkage=0.05


Tree=11
num_leaves=31
num_cat=10
split_feature=12 29 13 409 0 1 426 26 29 25 409 411 118 418 86 11 11 426 11 423 422 29 2 426 25 367 426 11 427 35
split_gain=5715.07 3767.03 2325.09 2293.85 1637.86 1906.28 1266.58 1245.07 1183.12 1081.54 1073.87 938.59 1032 788.528 737.564 708.67 696.927 915.663 696.574 680.461 670.382 631.954 630.205 870.356 761.02 618.511 595.052 722.618 633.096 579.762
threshold=0 3.5000000000000004 1.5000000000000002 1 63.975000000000001 2 101.77272247551504 1.0000000180025095e-35 9.5000000000000018 110.50000000000001 3 4 1.0000000180025095e-35 5 1.5000000000000002 6 7 103.92309300947868 8 3.5000000000000004 3.5000000000000004 7.5000000000000009 12471.000000000002 95.140791245791263 43.500000000000007 681.75000000000011 149.93046088680609 9 111.21414932601266 15.500000000000002
decision_type=9 2 2 9 2 1 2 2 2 2 9 9 2 9 2 9 9 2 9 2 2 2 2 2 2 2 2 9 2 2
left_child=2 6 7 -3 11 -6 22 -1 15 -8 13 12 16 -9 19 26 -5 -18 -10 -14 -15 -16 23 24 -2 -25 27 -7 -28 -4
right_child=1 3 29 4 5 8 9 10 18 -11 -12 -13 14 20 21 -17 17 -19 -20 -21 -22 -23 -24 25 -26 -27 28 -29 -30 -31
leaf_value=0.088369183010747018 0.086369641668416194 0.0983273571938173 0.098741950555355756 0.065097706930498309 -0.014583652099616061 0.033244949429305726 0.086890624582246556 0.14260346723865649 0.15495767335189609 -0.0034765483072952833 0.023392288713784473 -0.048555164208888425 -0.031840286624823237 0.07048151060002554 0.32135563839738046 0.032831381045941091 -0.0038414503763236421 0.04625616029766564 0.036231667265156919 0.024008048666755336 0.0079777193940899545 -0.0018583681025944679 0.011791893248847281 -0.0027492803599511798 -0.060264755610759703 0.10595165898139501 0.15007373346808678 0.074930214550184879 0.082492887135648077 0.019601360792828953
leaf_weight=5861.8164277076721 2064.2515564374626 2504.4676180072129 26965.159173041582 2588.6432074531913 866.11566907167435 1495.3872974924743 18211.748564396054 344.32294873148203 119.57049220427871 337.23287196457386 1810.3054384402931 342.74438635259867 918.69623017311096 3674.6835379190743 33.911818295717239 1180.1002876721323 1262.0552261769772 3289.3110573738813 4299.2366001792252 1342.3085837475955 485.69336992874742 27.296234913170338 735.69437161833048 645.52745432406664 92.446689840406179 164.13925147429109 377.42016158625484 3887.6077305153012 4236.5542072094977 233.41790829598904
leaf_count=5581 4450 3100 14527 12050 7525 9840 31723 279 636 2285 13284 4245 15786 17036 93 7336 10091 19642 35847 18596 3172 416 3745 3706 938 206 708 19848 15933 813
internal_value=0.0755609 0.0644569 0.0899103 0.0525219 0.0480987 0.0577528 0.0799184 0.0717745 0.0617398 0.0852477 0.0563706 0.0319392 0.0348693 0.0694176 0.00595195 0.0704383 0.0443233 0.0322936 0.039877 0.00131564 0.0630331 0.177216 0.053216 0.0634897 0.0800842 0.0192871 0.07477 0.0635511 0.088021 0.0980628
internal_weight=90397.9 51022.5 39375.4 28771.4 26267 16462 22251 12176.8 15595.9 18549 6315.01 9804.97 9462.22 4504.7 2322.21 11177.1 7140.01 4551.37 4418.81 2261 4160.38 61.2081 3702.06 2966.36 2156.7 809.667 9996.97 5383 4613.97 27198.6
internal_count=283437 228745 54692 181692 178592 97673 47053 39352 90148 34008 33771 80919 76674 20487 34891 53665 41783 29733 36483 34382 20208 509 13045 9300 5388 3912 46329 29688 16641 15340
cat_boundaries=0 2 5 6 10 16 61 63 65 67 69
cat_threshold=1095897610 411041968 1083398 1645953256 2158108784 4 1073792000 587424524 2166718670 7 33554496 1140850688 16384 0 0 8 0 0 0 134217728 32768 0 134217728 0 0 8388608 0 0 0 1073741824 0 0 32768 128 0 0 0 0 1073741824 2097152 0 1048576 65536 0 0 0 128 0 0 64 262152 0 0 0 0 0 0 0 0 4 268435488 3289588229 146800721 83887623 33555457 2214625312 142606336 1048580 4194304
is_linear=0
shrinkage=0.05


Tree=12
num_leaves=31
num_cat=11
split_feature=12 357 13 409 45 25 408 30 422 428 14 18 423 363 411 426 1 426 46 28 102 409 11 426 14 408 11 6 6 23
split_gain=5436.57 3553.05 2351.91 1865.69 1801.91 1396.15 1349.63 1300.18 1085.87 1065.77 963.259 1065.91 957.318 914.449 881.652 943.89 873.483 849.962 1172.37 972.666 970.029 773.832 768.762 755.954 721.778 658.072 626.906 625.017 910.648 619.616
threshold=0 233.99500274658206 2.5000000000000004 1 2 1.0000000180025095e-35 3 26.500000000000004 3.5000000000000004 -0.30903684774669532 2.5000000000000004 66.500000000000014 4.5000000000000009 28.98499965667725 4 34.938566666666681 5 183.67083296703302 6 224.50000000000003 1.5000000000000002 7 8 101.22135389958289 5.5000000000000009 9 10 225.50000000000003 122.50000000000001 70.500000000000014
decision_type=9 2 2 9 1 2 9 2 2 2 2 2 2 2 9 2 1 2 1 2 2 9 9 2 2 9 9 2 2 2
left_child=2 3 5 -2 17 -1 7 9 14 13 12 22 -9 24 15 -7 -3 18 19 27 -20 25 23 -12 -6 -17 -19 28 -5 -25
right_child=1 16 -4 4 6 8 -8 10 -10 -11 11 -13 -14 -15 -16 21 -18 26 20 -21 -22 -23 -24 29 -26 -27 -28 -29 -30 -31
leaf_value=0.08577798429603517 0.091909606885829206 -0.023992782837290713 0.095044866624899443 0.11657429892622269 0.012992684436087198 -0.025875472593035777 -0.036143545826283568 -0.022139417247277002 0.0092080657158632017 0.060629941676648147 0.0064025193731251043 -0.039452133569116303 0.029683110971943538 0.063876301164737748 0.00082847131331738604 0.11132572482229386 0.082112444104630852 0.093298764611590868 0.022697410654507436 -0.015797239178984651 0.16402642998428565 0.034007686253905309 -0.014319962208424833 0.071117269894563337 0.071879760647611798 0.069628866873132605 0.0043151167808278025 0.087942094027262108 0.040360156367355425 0.27473631383736019
leaf_weight=8175.5659651011229 2680.4084660746157 198.51581720262766 22227.220480307937 483.83553840592504 3674.1942507587373 260.52507257834077 557.83209535107017 1620.4716272093356 1032.9671036303043 9639.0136706419289 497.38685289397836 349.23604763671756 1980.1187665723264 1791.8049699552357 536.91884206235409 1252.5775311104953 14277.201637160033 2827.56040687114 2610.1097591370344 322.9638765566051 127.335254304111 1253.4192485548556 379.1019636914134 2179.0581496283412 606.21508057042956 5193.4565727561712 224.91707350313663 3237.3639319576323 2063.5884871669114 38.013393711298704
leaf_count=6579 3125 1008 8089 1027 32429 1604 6287 17314 6027 50139 5605 4747 17126 7703 4649 3176 20938 5153 13946 2364 78 6859 3728 14172 3463 17709 1078 8644 8614 57
internal_value=0.0702644 0.0596149 0.0841938 0.0515762 0.0484659 0.0706191 0.0403991 0.0422729 0.0576144 0.0502939 0.0244409 0.0433505 0.00636001 0.0338865 0.0634992 0.0676404 0.0806975 0.0643127 0.056462 0.0686485 0.0292715 0.0708926 0.0526982 0.0618827 0.0213326 0.0778912 0.0870619 0.0733631 0.0548356 0.0746085
internal_weight=92298.9 52366.2 39932.7 37890.5 35210.1 17705.4 23312.4 22754.6 9529.86 15711.2 7043.39 3442.8 3600.59 6072.21 8496.9 7959.98 14475.7 11897.7 8845.2 6107.75 2737.45 7699.45 3093.56 2714.46 4280.41 6446.03 3052.48 5784.79 2547.42 2217.07
internal_count=283437 228745 54692 206799 203674 46603 162770 156483 40024 93734 62749 28309 34440 43595 33997 29348 21946 40904 34673 20649 14024 27744 23562 19834 35892 20885 6231 18285 9641 14229
cat_boundaries=0 2 5 6 9 15 16 17 21 23 26 28
cat_threshold=1095897610 411041968 1083396 1645428844 2156011632 2 4112 1176509699 14 2206203976 21102656 2147532800 1073758209 3221225600 8 4 1 3254834176 587425800 2435153998 3 2147615796 180355073 2164330707 813840388 65 1158807593 4194304
is_linear=0
shrinkage=0.05


Tree=13
num_leaves=31
num_cat=10
split_feature=409 366 13 29 418 26 428 12 18 411 418 33 411 422 409 26 40 7 21 21 21 31 426 1 214 12 17 426 331 31
split_gain=5232.75 3445.22 2041.66 1713.29 1631.98 1651.38 1598.32 1200.06 904.385 895.302 870.826 809.326 725.533 680.813 643.118 641.199 842.484 631.857 630.013 609.269 602.942 600.071 578.941 631.659 568.314 556.585 660.404 626.573 545.836 538.528
threshold=0 25.005350112915043 2.5000000000000004 8.5000000000000018 1 1.0000000180025095e-35 -0.30903684774669532 2 1.5000000000000002 3 4 68.979167938232436 5 3.5000000000000004 6 2.5000000000000004 18.500000000000004 7 3.5000000000000004 10.500000000000002 53.500000000000007 1.5000000000000002 103.92309300947868 8 607.50000000000011 9 1.0000000180025095e-35 257.01725870069612 1.0000000180025095e-35 1.0000000180025095e-35
decision_type=9 2 2 2 9 2 2 9 2 9 9 2 9 2 9 2 2 9 2 2 2 2 2 1 2 9 2 2 2 2
left_child=1 3 4 6 -2 24 11 9 18 10 13 21 -9 -7 -12 -10 -17 19 25 -3 -18 -1 23 -23 -6 26 27 28 -8 -5
right_child=2 17 -4 29 5 7 8 12 15 -11 14 -13 -14 -15 -16 16 20 -19 -20 -21 -22 22 -24 -25 -26 -27 -28 -29 -30 -31
leaf_value=0.062872536269522813 0.10568440637643049 0.067296398242242136 0.090429910511776887 0.10077999320401394 0.081000120629978842 0.070000566940099221 0.010429456366705385 0.092639469526826279 0.093435058044567101 -0.010703711591326685 0.1020778686370333 -0.0361136213735362 -0.028081534431168516 0.013337512841020131 -0.007047829623436661 0.10611586593565865 0.049391591901235259 0.085075850046404666 0.16620879976612368 -0.011532800794743874 -0.057867937356088132 0.049251817857700129 0.040817170160187828 -0.0097437120417763617 -0.011534828241710706 0.010167042827704517 0.029595381264427231 0.094439515428179729 0.059500726355792503 0.02267865737469698
leaf_weight=2139.1272092536092 2452.3105526790023 11384.298463556916 20701.082293175161 227.7622493840754 7150.7553682923317 5520.2698735445738 609.91528693586588 138.76973413676023 3036.8259639665484 519.38600020483136 153.46419261023402 368.39465659856796 755.43632301688194 586.42653507739305 773.64984919503331 683.33315591514111 1613.4282397963107 7112.6831262893975 123.45114602148533 250.51147450134158 142.60221760720015 670.43537152186036 6078.7413687072694 1356.8023855984211 169.86842539906502 744.84446712583303 2055.7554822228849 1210.7162504270673 7996.6187161616981 7133.0921717807651
leaf_count=7084 984 19541 7314 887 5893 17909 3360 511 7321 4709 441 3570 7600 3154 5472 1970 6906 6348 238 1456 1582 2180 37204 13631 776 4384 16847 1964 26687 65514
internal_value=0.0656096 0.0556269 0.0796659 0.0466254 0.06748 0.0614323 0.0521222 0.046408 0.0611081 0.0528533 0.057555 0.0366986 -0.00852978 0.0644537 0.0119122 0.0781011 0.0590114 0.0730338 0.0538045 0.0655428 0.0406814 0.0393168 0.0331005 0.00996181 0.0788529 0.0527047 0.0553182 0.0607609 0.0560232 0.0250953
internal_weight=93860.8 54939.3 38921.4 36191.8 18220.3 15768 28831 8447.4 18217.5 7553.2 7033.81 10613.5 894.206 6106.7 927.114 5476.19 2439.36 18747.5 12741.3 11634.8 1756.03 10245.1 8105.98 2027.24 7320.62 12617.9 11873 9817.25 8606.53 7360.85
internal_count=283437 228674 54763 201329 47449 46465 134928 39796 71259 31685 26976 63669 8111 21063 5913 17779 10458 27345 53480 20997 8488 60099 53015 15811 6669 53242 48858 32011 30047 66401
cat_boundaries=0 3 48 50 56 100 105 109 110 111 113
cat_threshold=898642946 2550404147 1342702469 134217728 0 0 134217728 32768 0 134217728 0 0 8388608 128 0 4 1073741824 0 0 32768 2 0 262144 0 0 1073741824 1073741824 0 1048577 0 0 2048 134217728 0 0 4194304 32 262144 557057 0 0 33554432 9437200 0 0 16777216 2097156 268435488 1095895563 8388728 2189426760 4325440 2147532800 1073758721 3221225472 9 278528 0 0 0 687865856 0 33554440 0 0 2 0 0 0 16384 8 0 0 128 1073743872 2097184 0 0 0 524288 0 0 65536 0 33554432 256 4256 0 0 524352 8 33554432 0 32768 67108864 16384 65536 2 0 8388608 8388616 1073741840 32768 512 2147483648 2147516416 553648136 2164260864 4 8 9 1224871945 293601424
is_linear=0
shrinkage=0.05


Tree=14
num_leaves=31
num_cat=8
split_feature=409 366 13 17 418 26 18 28 426 11 12 45 14 26 411 427 0 408 14 180 3 426 13 40 102 27 111 418 428 426
split_gain=5066.83 3215.35 2050.58 1478.55 1475.2 1539.84 1379.84 1296.69 1174.57 1163.49 1045.14 876.755 817.6 870.702 782.324 821.788 741.663 698.485 683.715 679.813 658.908 878.473 959.599 862.03 833.09 762.242 662.598 633.731 621.374 613.775
threshold=0 169.0350036621094 2.5000000000000004 1.0000000180025095e-35 1 1.0000000180025095e-35 3.5000000000000004 10.500000000000002 114.74007444061964 2 3 4 2.5000000000000004 79.500000000000014 5 37.819233018896774 370.01000000000005 6 3.5000000000000004 149.98500061035159 414.50000000000006 119.2856980392157 113.50000000000001 11.500000000000002 1.0000000180025095e-35 300.50000000000006 1.0000000180025095e-35 7 -0.24217862029036871 186.70980788669274
decision_type=9 2 2 2 9 2 2 2 2 9 9 1 2 2 9 2 2 9 2 2 2 2 2 2 2 2 2 9 2 2
left_child=1 3 4 6 -2 -6 7 -1 -5 11 14 16 -10 20 15 18 -9 29 27 -12 21 24 23 -23 -14 26 -22 -7 -13 -11
right_child=2 -3 -4 8 5 10 -8 9 12 17 19 28 13 -15 -16 -17 -18 -19 -20 -21 25 22 -24 -25 -26 -27 -28 -29 -30 -31
leaf_value=0.067293553006378862 0.099556312806858144 0.073019695865061324 0.086156805659489577 0.0012952591163681159 0.074340354481578982 0.054392689983703141 0.081684980379734567 0.026349447123938621 0.023274881949250353 0.020887980335105027 -0.028371464024719996 0.046552059103970499 -0.041070734172910954 -0.0098162590111005883 -0.0096179943207645811 0.064305837041171085 0.082732440695441001 -0.034989769918382645 -0.040880734462599211 0.10252441955989498 0.14852979026845178 0.096357379280776312 0.31961626374022556 -0.0076773738901498361 0.1421978369176935 0.014129856710787345 0.075535707552009043 -0.015822134318598649 0.073044019316695449 0.049970529082758557
leaf_weight=6147.8180644623935 2455.6154648512602 13542.257222510874 20665.232900060713 2843.8449104875326 7395.8782139346004 1449.9493714794517 3169.6634944453835 4391.6892229281366 3971.4947818517685 5639.7677991688251 717.16010075435042 4386.0643054060638 76.793475415557623 440.43540566787124 535.44576110690832 5081.0717582516372 672.56514351069927 425.93701541796327 312.35444062948227 115.11389723420143 512.20661379769444 253.57298873737454 26.373220033943653 927.15700864419341 322.09228505194187 286.35055177658796 791.03102182969451 412.17784993350506 4468.3981502987444 2674.5385416448116
leaf_count=10581 963 16527 7318 39628 6677 4827 4295 23680 33979 30925 7412 19025 694 4157 4891 17925 1412 4235 1530 148 1238 1083 24 8212 1017 2285 3896 3112 11965 9776
internal_value=0.0614899 0.0517982 0.0753166 0.0450369 0.0632318 0.0575655 0.0503731 0.0469278 0.0287104 0.0414022 0.043245 0.0503946 0.0389588 0.0560898 0.0488986 0.0532243 0.0338375 0.0269933 0.0275751 -0.010145 0.0651735 0.0425854 0.0213278 0.0146651 0.106915 0.0879946 0.104224 0.0390579 0.0599212 0.0302069
internal_weight=95110.1 55970.1 39140 42427.8 18474.8 16019.2 31976.4 28806.8 10451.4 22659 8623.27 13918.7 7607.51 3636.01 7791 7255.55 5064.25 8740.24 2174.48 832.274 3195.58 1605.99 1207.1 1180.73 398.886 1589.59 1303.24 1862.13 8854.46 8314.31
internal_count=283437 228634 54803 212107 47485 46522 115894 111599 96213 101018 39845 56082 56585 22606 32285 27394 25092 44936 9469 7560 18449 11030 9319 9295 1711 7419 5134 7939 30990 40701
cat_boundaries=0 3 48 50 52 53 59 61 103
cat_threshold=630207490 2550404147 1342702469 134217728 0 0 134217728 32768 0 134217728 0 0 8388608 128 0 4 1073741824 0 0 32768 0 0 262144 0 0 1073741824 1073741824 0 1048577 0 0 2048 134217728 0 0 4194304 32 262144 557057 0 0 33554432 9437200 0 0 16777216 2097156 268435488 1279506947 142606480 1095896587 8388728 1 2189426760 4325440 2147532800 1073758721 3221225472 9 16781312 1283 262144 0 0 0 0 0 0 0 0 2 0 0 0 0 0 0 0 2 1073741824 32 0 0 0 0 0 0 0 0 0 256 0 0 0 524288 0 33554432 0 32768 0 16384 65536 2
is_linear=0
shrinkage=0.05


Tree=15
num_leaves=31
num_cat=13
split_feature=12 357 13 418 26 411 418 11 7 6 28 25 98 14 17 408 11 2 139 44 25 27 227 1 411 11 0 4 11 423
split_gain=4973.41 2796.42 2421.23 1813.83 1339.29 1202.64 1061.25 1037.93 1155.23 1020.34 1000.02 855.706 1057.43 1041.02 848.656 847.162 805.416 778.149 741.733 739.762 808.807 699.62 691.968 765.646 1011.35 889.847 858.155 670.324 668.336 642.966
threshold=0 150.01145172119143 2.5000000000000004 1 1.0000000180025095e-35 2 3 4 5 225.50000000000003 172.50000000000003 45.500000000000007 1.0000000180025095e-35 13.500000000000002 1.0000000180025095e-35 6 7 18345.500000000004 1.5000000000000002 8 81.500000000000014 361.50000000000006 1.5000000000000002 9 10 11 171.24000000000004 149.50000000000003 12 36.500000000000007
decision_type=9 2 2 9 2 9 9 9 9 2 2 2 2 2 2 9 9 2 2 1 2 2 2 1 9 9 2 2 9 2
left_child=2 3 4 -2 29 7 -6 8 10 14 -5 12 -11 18 16 -8 -10 -14 21 20 -3 -13 23 24 -17 27 -25 -26 -21 -1
right_child=1 19 -4 5 6 -7 15 -9 9 11 -12 13 17 -15 -16 22 -18 -19 -20 28 -22 -23 -24 26 25 -27 -28 -29 -30 -31
leaf_value=0.076545285351964615 0.092321446613866612 0.071891720290223587 0.082554758441435575 0.059865992641231963 0.10626363047256122 -0.013669333568526829 0.084479716170744845 -0.026894610492587175 0.12352291127771227 0.046409225583346245 -0.0031298443817192843 0.12244301488233485 0.0053514230916620782 0.029186473702104639 -0.0011055658240730728 0.10925964719630432 0.028461327460529491 0.28714375579750712 0.29904993138069608 0.053351488411922748 -0.014013646925036547 -0.016586396679187331 -0.03217493765543588 -0.018039782761701033 -0.029331534825661268 0.01128280444549754 0.057899532503979258 0.058952922930223972 -0.0069564012359356487 0.02520351878231078
leaf_weight=7918.1349394917488 1601.437705501914 13448.117097299546 22147.875415023416 8947.1388047002256 672.30824468657374 1096.8345538415015 1010.2579829059541 574.91697311773896 222.24322520568967 9953.9734790585935 677.69807242229581 682.24741353839636 2225.0477003864944 585.03286463022232 2726.1713435426354 585.60870678722858 7213.5843526683748 24.771531824022532 51.962892480194569 4340.7052913382649 279.69476728886366 104.32422629371285 357.56491824239492 1072.2084948197007 228.2770606353879 1832.8491873517632 569.69185666739941 3699.2218600325286 518.8055015578866 660.67981813848019
leaf_count=5495 406 16649 8086 28998 641 9956 3146 5366 496 47168 4900 1598 25744 5503 32929 1363 33745 106 112 10129 1385 1044 1495 8527 1211 9310 2234 12186 2228 1182
internal_value=0.0580932 0.0482847 0.0713668 0.0402885 0.0580881 0.0378765 0.0456808 0.0395434 0.0406942 0.0347347 0.0553728 0.0436913 0.039412 0.080376 0.0227579 0.0411696 0.0315069 0.00845408 0.11609 0.0640935 0.0700904 0.104003 0.0358319 0.038921 0.0467676 0.0402362 0.00825866 0.0536849 0.0469119 0.0725913
internal_weight=96029.4 55274.7 40754.7 36687.4 18606.8 35085.9 10028 33989.1 33414.2 23789.4 9624.84 13627.4 12203.8 1423.57 10162 9355.68 7435.83 2249.82 838.535 18587.3 13727.8 786.572 8345.42 7987.86 6345.96 5760.35 1641.9 3927.5 4859.51 8578.81
internal_count=283338 228462 54876 198071 46790 197665 40113 187709 182343 148445 33898 81275 73018 8257 67170 39472 34241 25850 2754 30391 18034 2642 36326 34831 24070 22707 10761 13397 12357 6677
cat_boundaries=0 2 47 53 98 100 101 104 106 107 108 113 115 117
cat_threshold=1095897610 411041968 0 0 0 0 553648128 33554432 8 67108864 16777216 0 0 0 0 0 0 0 0 0 1082130432 541065232 0 0 0 0 0 0 0 0 2048 256 40 0 0 524320 278528 524288 0 0 67108864 0 0 0 256 2097152 268632064 2181302280 1090650200 262144 134218240 2148532224 8 134217728 0 0 0 536870912 0 134217728 0 134217728 2 0 0 0 1073741824 0 0 32768 128 0 2097184 0 0 0 1080033280 0 1048576 65536 0 33554432 2048 0 0 4194304 96 262144 32768 0 0 33554432 1048576 131072 2 16777216 4 268435488 3440586351 180356121 5 16846915 1016082436 65 67117568 134217736 5 3 25165824 16777216 16384 0 2147500032 1145181184 4194352 3289516041 4194305
is_linear=0
shrinkage=0.05


Tree=16
num_leaves=31
num_cat=9
split_feature=409 357 13 418 423 14 25 27 427 12 409 411 411 87 44 103 18 26 32 46 25 21 25 35 427 25 0 411 343 72
split_gain=4903.37 2745.99 2094.15 1404.84 969.851 943.862 1163.05 1034.21 884.72 877.409 929.607 857.284 772.989 733.112 677.416 639.216 636.289 585.011 563.4 546.559 538.044 533.08 530.854 662.259 558.35 620.294 529.649 617.452 606.493 528.285
threshold=0 118.00999832153322 1.5000000000000002 1 64.500000000000014 2.5000000000000004 6.5000000000000009 32.500000000000007 160.6289928404793 2 3 4 5 1.5000000000000002 6 1.5000000000000002 1.5000000000000002 1.0000000180025095e-35 296.50000000000006 7 2.5000000000000004 6.5000000000000009 81.500000000000014 15.500000000000002 176.57796829165815 11.500000000000002 171.24000000000004 8 1.5000000000000002 1.5000000000000002
decision_type=9 2 2 9 2 2 2 2 2 9 9 9 9 2 1 2 2 2 2 1 2 2 2 2 2 2 2 9 2 2
left_child=1 5 3 -2 9 7 -7 11 21 26 -11 16 -12 -8 22 19 17 -1 -4 -10 -18 -9 24 -24 25 -3 27 28 -5 -16
right_child=2 14 18 4 -6 6 13 8 15 10 12 -13 -14 -15 29 -17 20 -19 -20 -21 -22 -23 23 -25 -26 -27 -28 -29 -30 -31
leaf_value=0.054475160791364642 0.093724888170814522 0.061290677951362782 0.078315873141846293 0.061158611014478809 -0.015138808528553663 0.071344915032126963 0.031304453847617889 -0.016227588938707248 0.043006731498611388 0.099514980038239581 0.032115512691526987 -0.0070883517629277892 -0.02893247317391966 0.078967739665722347 0.04693432267081149 0.11903030429846465 0.085341517868089217 0.031555426250356289 0.035081497232474078 0.0047906830637704841 0.039165643457868771 0.21105546249154591 0.08601658801982609 -0.05169179743225101 0.074095127350512088 0.013089920319495532 0.087983069465398966 0.015681424051585836 -0.038987776479774437 -0.075159096600178693
leaf_weight=3531.6619381830096 1821.0382319949567 4053.8340321145952 24531.046328086406 6004.3705294467509 608.53805276378989 3953.0380654148757 6187.5127155892551 1973.5040050372481 1800.4696579799056 359.95107586681843 1771.9459076821804 1025.1672279648483 723.5428097769618 927.71634731814265 5487.3822326436639 182.27899987995625 1322.8783842474222 13152.767397612333 777.40566205233335 1947.6682446263731 1205.9377366937697 26.140429180115461 149.68721883744001 209.49942092224956 9792.9503225460649 799.02796716988087 1244.3210545927286 1003.3286480903625 155.08516420423985 90.051899775862694
leaf_count=7076 585 5695 12235 13849 3904 9410 40598 19262 10471 644 8334 8813 6330 2490 13147 229 3573 72965 1616 15242 5676 40 111 1340 9609 2943 1421 4550 687 493
internal_value=0.0547277 0.045453 0.0684483 0.0527138 0.0463047 0.0373598 0.0496 0.0321826 0.0138197 0.0496657 0.0254134 0.0375632 0.0143704 0.037519 0.0601171 0.027595 0.0399286 0.0364069 0.0769878 0.0231483 0.0633212 -0.0132564 0.0657061 0.00569671 0.0672227 0.0533544 0.057804 0.052642 0.058542 0.0448826
internal_weight=96819.7 57819.2 39000.6 13692.1 11871.1 37236.7 11068.3 26168.5 5930.06 11262.5 2855.44 20238.4 2495.49 7115.23 20582.4 3930.42 19213.2 16684.4 25308.5 3748.14 2528.82 1999.64 15005 359.187 14645.8 4852.86 8407.11 7162.78 6159.46 5577.43
internal_count=283338 229183 54155 40304 39719 195845 52498 143347 45244 35815 15308 98103 14664 43088 33338 25942 89290 80041 13851 25713 9249 19302 19698 1451 18247 8638 20507 19086 14536 13640
cat_boundaries=0 3 48 50 54 60 66 67 68 74
cat_threshold=630207488 2550404275 1342899077 0 0 0 0 536870912 0 134217728 67108864 134217728 8388610 0 0 4 1073741824 0 0 32768 128 0 294912 0 0 0 0 0 1048576 65536 0 570427392 134219776 0 0 0 0 262144 557056 0 0 100663296 1048592 0 0 16777216 2621444 268435488 1091700226 67109040 3221227526 1661468680 2155880560 1 2172649480 16777304 33554432 134217729 68173952 8 2155872256 1090519120 1343488 134218241 0 9 5 1 41943050 131088 2147532800 1073758209 2147483656 8
is_linear=0
shrinkage=0.05


Tree=17
num_leaves=31
num_cat=13
split_feature=409 366 13 423 0 12 11 33 1 418 409 29 23 426 11 7 411 411 345 42 11 334 27 6 87 423 0 103 124 46
split_gain=4734.24 2586.85 2155.75 1363.1 1125.42 1058.66 1035.04 963.805 887.253 770.68 708.585 661.674 714.639 652.685 649.421 674.066 633.583 576.635 575.855 596.76 583.44 955.091 599.432 541.263 673.479 655.502 566.458 569.02 563.468 556.954
threshold=0 25.965300559997562 2.5000000000000004 37.500000000000007 59.005000000000003 1 2 37.895832061767585 3 4 5 8.5000000000000018 1.5000000000000002 35.673999783268322 6 7 8 9 2.5000000000000004 10 11 3.5000000000000004 274.50000000000006 225.50000000000003 1.5000000000000002 4.5000000000000009 36.750000000000007 1.5000000000000002 1.5000000000000002 12
decision_type=9 2 2 2 2 9 9 2 1 9 9 2 2 2 9 9 9 9 2 1 9 2 2 2 2 2 2 2 2 1
left_child=1 4 3 5 8 7 11 13 -1 10 -5 12 -6 -2 -3 -16 -15 -9 19 -17 -21 22 -22 26 25 28 -10 -28 -25 -27
right_child=2 14 -4 9 6 -7 -8 17 23 -11 -12 -13 -14 16 15 18 -18 -19 -20 20 21 -23 -24 24 -26 29 27 -29 -30 -31
leaf_value=0.048823469090687993 0.015266400564499001 -0.033903359600044571 0.076588754411429635 0.10197712108425461 0.043137905326434696 -0.035446613338977112 0.011543480192284759 0.043687372096260231 -0.018932590205590474 -0.024682311210911797 0.016074674089105383 0.02754479132000567 0.06523725313021804 0.0015126576835262746 0.070939583063325803 0.077470103144435379 0.068208784584405505 -0.014794001908951179 0.077902949655520581 0.062508361021353195 0.039187717936961984 -0.0027381842769975736 0.10563330915136569 -0.0011645446349662597 0.087267007689951895 0.053154217782922633 0.012784067594203719 0.11341164644143041 0.16009143383588267 0.015139216672315976
leaf_weight=2933.090643659234 653.20930839702487 189.95377552136779 20092.587826892734 318.03244423493743 12670.739401590079 297.27087466418743 2564.2278679832816 1562.6083431057632 1605.1972670517862 776.04184348136187 943.25851810351014 4241.7809539288282 5143.0701141133904 376.79369620233774 7092.9306837469339 1367.1207888349891 13316.912829995155 574.42919549718499 1726.2346612736583 2518.2120127864182 4671.8875746689737 1394.7603115439415 366.02052132412791 2345.577768523246 437.32819514721632 2109.8802304528654 3186.6612627506256 146.96528396010399 55.453093774616718 1773.2765450887382
leaf_count=7240 2402 737 7216 412 47139 2423 15472 4416 14707 4904 4125 32466 14737 2420 5987 1380 22414 3423 1241 3580 9129 4838 462 19471 1344 11672 23964 267 56 13294
internal_value=0.0516472 0.0426321 0.0651824 0.0530385 0.0352604 0.0577273 0.0417819 0.0593931 0.0242584 0.0144178 0.0383666 0.0452717 0.0495183 0.0640953 0.0576107 0.0585062 0.0664245 0.028103 0.0511314 0.046702 0.0420026 0.0338253 0.0440152 0.0180218 0.0272714 0.0230962 0.00547003 0.0172203 0.00255975 0.0357943
internal_weight=97451.5 58540.4 38911.1 18818.6 39213.2 16781.2 24619.8 16484 14593.4 2037.33 1261.29 22055.6 17813.8 14346.9 19327.1 19137.2 13693.7 2137.04 12044.2 10318 8950.88 6432.67 5037.91 11660.3 6721.52 6284.19 4938.82 3333.63 2401.03 3883.16
internal_count=283338 229183 54155 46939 201829 37498 109814 35075 92015 9441 4537 94342 61876 27236 27354 26617 24834 7839 20630 19389 18009 14429 9591 84775 45837 44493 38938 24231 19527 24966
cat_boundaries=0 3 5 7 8 52 55 57 58 62 68 69 71 72
cat_threshold=630207488 2550404275 1342899077 1095894541 209715384 3423812137 146800824 9 134217728 0 0 0 0 0 0 67108864 0 2 0 0 2147483648 1073741824 0 0 16 0 524288 4456448 0 0 0 0 0 0 65536 0 65536 0 128 0 0 32 262144 33554432 0 0 0 1064960 65536 0 128 2097152 37748736 674304 32864 2147488272 134352904 4 0 67108864 33554432 135274500 8388672 1140850752 2148564992 402653697 0 8 1 1279329314 4194304 1
is_linear=0
shrinkage=0.05


Tree=18
num_leaves=31
num_cat=15
split_feature=307 7 409 17 23 18 409 43 11 11 408 27 11 40 11 6 17 427 427 18 4 418 35 6 11 46 12 11 10 409
split_gain=4770.88 2993.28 1725.62 1443.84 1759.06 1426.52 1162.84 976.865 962.512 900.471 815.559 789.872 789.285 772.122 852.581 765.538 733.244 1037.81 826.164 827.98 735.436 710.251 704.574 702.192 764.545 646.029 772.989 592.496 570.495 544.486
threshold=1.5000000000000002 0 1 1.0000000180025095e-35 1.5000000000000002 1.5000000000000002 2 3 4 5 6 120.50000000000001 7 60.500000000000007 8 225.50000000000003 1.5000000000000002 197.36585271773836 120.64496869705344 1.0000000180025095e-35 143.50000000000003 9 5.5000000000000009 225.50000000000003 10 11 12 13 36.500000000000007 14
decision_type=2 9 9 2 2 2 9 1 9 9 9 2 9 2 9 2 2 2 2 2 2 9 2 2 9 1 9 9 2 9
left_child=1 2 9 4 7 6 -4 28 11 -1 21 -8 -6 -7 -15 -5 20 18 19 -18 -17 -9 -14 24 -23 -25 -27 -19 -3 -26
right_child=-2 3 5 15 12 13 8 10 -10 -11 -12 -13 22 14 -16 16 17 27 -20 -21 -22 23 -24 25 29 26 -28 -29 -30 -31
leaf_value=0.027329644946372557 0.071560402653265506 0.037868179499628556 0.078060117271420343 -0.00020520771808764013 0.058950867442703142 0.080726335788339168 0.051501224733667833 0.072720495004597041 0.0099046417579691671 -0.05525847789886304 -0.016054467973809165 -0.0015080557802655882 0.039225146687598522 0.061163986546006494 -0.017479972579346605 0.24736434454412815 0.17951447222118699 0.14801604469690127 0.07499624469631952 -0.032051132629881761 0.0074982624460472923 0.10323511426914858 -0.040602878613966248 0.049618262505990787 0.0489453056337587 0.073307827790182453 0.016949406245150758 -0.011773004333173657 0.082729834320316234 0.011008094657421117
leaf_weight=1288.3987203575671 18664.919995177537 1473.4265173971653 3092.3083291910589 3559.6895314007998 11716.376240089536 7905.371414821595 13574.752174273133 943.04135616496205 1820.3492045588791 432.74998393654823 990.01639470085502 741.10281923040748 1186.2935953438282 2782.9561606049538 394.28049302473664 32.325073964893818 53.387735590338707 52.230521742254496 2014.825072709471 345.68380976840854 2795.9913790673018 247.25779015943408 360.38198577985168 5208.1318506635725 1070.8511482775211 698.46831310167909 4497.3004541173577 846.32363247871399 1365.350574709475 7782.5703118406236
leaf_count=5510 8736 5208 3077 36404 19457 5552 33479 1653 9082 3697 6855 4107 2495 5595 2138 40 185 53 10851 4542 25411 368 1508 16387 3462 1391 21088 6508 2400 36099
internal_value=0.0488176 0.0434628 0.0552784 0.0354317 0.0398827 0.0580528 0.0498371 0.0318826 0.0443527 0.00636519 0.0282328 0.048723 0.0545259 0.0723596 0.0515421 0.0182434 0.0289377 0.0449028 0.0619781 -0.00374792 0.0102397 0.03037 0.0204924 0.0282862 0.0181571 0.0371736 0.0246994 -0.000968652 0.059445 0.0156468
internal_weight=97937.1 79272.2 32032.3 47239.9 37539.5 30311.1 19228.5 24276.4 16136.2 1721.15 21437.6 14315.9 13263.1 11082.6 3177.24 9700.46 6140.77 3312.45 2413.9 399.072 2828.32 20447.6 1546.68 19504.6 9100.68 10403.9 5195.77 898.554 2838.78 8853.42
internal_count=283338 274602 72237 202365 118371 63030 49745 94911 46668 9207 87303 37586 23460 13285 7733 83994 47590 22139 15578 4727 25451 80448 4003 78795 39929 38866 22479 6561 7608 39561
cat_boundaries=0 1 4 7 8 10 12 15 17 19 64 65 66 68 70 74
cat_threshold=5 1048576 2550169712 268436225 3256928258 571099660 2165317728 1 3440574987 12583089 17962017 4194440 2147566867 773881220 29 4391983 4194433 1075019793 37748752 0 0 0 0 555745280 0 2281701376 67108864 134217728 2 0 0 4 16384 0 0 0 0 0 4227088 0 0 1073741824 65536 0 1048580 2048 0 65536 0 4 0 0 32 262144 33554432 0 0 100663296 1048576 0 0 128 8912896 402653216 1140851200 1 1158676482 8388752 2147483648 134217728 4227072 805406816 269795353 6
is_linear=0
shrinkage=0.05


Tree=19
num_leaves=31
num_cat=11
split_feature=307 7 18 409 11 182 418 11 2 14 30 25 28 11 27 347 21 0 418 408 28 11 409 179 10 23 10 2 46 146
split_gain=4704.67 2730.97 1589.16 1353.1 1218.77 1167.84 1166.94 1161.61 1002.24 754.669 820.592 739.304 691.987 849.71 676.569 605.602 598.132 604.096 585.072 583.56 571.099 556.484 523.454 512.085 496.502 484.02 474.383 450.125 445.695 546.983
threshold=1.5000000000000002 0 1.5000000000000002 1 2 1.0000000180025095e-35 3 4 12696.000000000002 2.5000000000000004 29.500000000000004 6.5000000000000009 199.50000000000003 5 120.50000000000001 2.5000000000000004 3.5000000000000004 48.955000000000005 6 7 202.50000000000003 8 9 520.13000488281261 25.500000000000004 4.5000000000000009 305.50000000000006 8963.0000000000018 10 8.5000000000000018
decision_type=2 9 2 9 9 2 9 9 2 2 2 2 2 9 2 2 2 2 9 9 2 9 9 2 2 2 2 2 1 2
left_child=1 2 3 -1 5 6 -3 14 9 10 16 -11 -4 -14 19 21 17 22 20 -5 25 -12 -8 -22 -19 26 -10 -24 29 -7
right_child=-2 4 12 7 -6 28 8 -9 18 11 15 -13 13 -15 -16 -17 -18 24 -20 -21 23 -23 27 -25 -26 -27 -28 -29 -30 -31
leaf_value=0.073618893814727679 0.069013449180609795 0.091132986337968319 0.070097773160263957 0.049276506509746215 -0.025233885570379522 0.036018248998313372 0.045408620158716273 0.0036012680398186565 0.014396065417566745 0.064391890836683646 0.16052281376823924 0.034391057955766045 0.07049408846396607 -0.047344431262898064 -0.0018218658713162667 0.094085504634317557 0.12356639414155497 0.033825654972336958 -0.050522399362788156 0.017606216293236904 -0.028793956247493809 -0.0011699010103969872 -0.017561974517558247 0.078078087920581171 0.065046052832190532 0.056085918605640633 0.064677965603422802 0.025629312786749455 0.055085859939546539 -0.076385825459106507
leaf_weight=3267.164941623807 18392.95207568258 763.80557630583644 10838.346936237067 12911.693561539054 868.32095963135362 2432.1834501028061 944.97395664453506 2119.1415602564812 7004.2900441065431 3374.3660633452237 44.091885961592197 5246.051281992346 310.91197046265006 283.44082864001393 790.46166054904461 186.41129970550537 182.01701110601425 8608.1806935966015 317.63072935119271 1681.9560971185565 967.90144931897521 3268.6094633154571 1351.7252544537187 126.76674537733197 1494.5558947511017 925.52236269414425 502.74749981984496 1089.3785340040922 7868.6382630690932 113.27095878124237
leaf_count=3335 8736 390 11092 29685 6985 5363 2811 11805 37019 6891 95 28699 857 2144 4447 241 290 38056 2179 8872 9891 24856 10124 399 4716 3315 1809 6319 11312 605
internal_value=0.0462146 0.0409653 0.0522299 0.0440055 0.0333394 0.0344311 0.0302142 0.0384139 0.0288748 0.0340636 0.0280033 0.0461345 0.0672172 0.0146876 0.0432038 0.0063976 0.0335333 0.0323184 0.015311 0.0456723 0.0175405 0.00146326 0.0140414 -0.0164178 0.0384443 0.0219696 0.0177635 0.00170579 0.0492027 0.0310163
internal_weight=98277.5 79884.6 32203.1 20770.4 47681.4 46813.1 36399 17503.3 35635.2 25790.4 17169.9 8620.42 11432.7 594.353 15384.1 3499.11 13670.8 13488.8 9844.86 14593.6 9527.23 3312.7 3386.08 1094.67 10102.7 8432.56 7507.04 2441.1 10414.1 2545.45
internal_count=283338 274602 72237 58144 202365 195380 178100 54809 177710 123098 87508 35590 14093 3001 43004 25192 62316 62026 54612 38557 52433 24951 19254 10290 42772 42143 38828 16443 17280 5968
cat_boundaries=0 1 4 6 51 53 54 99 102 104 108 109
cat_threshold=5 3794323458 571099660 2173706352 3293785711 138413241 134217728 0 0 0 555745280 0 2281701376 67108864 134217728 2 0 0 4 1073741824 0 0 0 0 2 536903680 0 0 0 6881280 0 1048580 0 0 0 0 0 0 0 32 262144 32768 0 0 117440512 1048576 0 0 32896 0 268435488 1293091371 12583089 1179648 262144 0 2 0 0 0 0 0 0 8388608 0 0 0 0 0 4194304 32768 268435458 1073743872 2101248 0 0 0 0 0 0 2048 0 65536 0 2052 0 0 0 16384 33554433 0 0 0 17408 65536 0 0 8388608 134217736 67113153 4141881604 15 2048 8 35291136 822682660 3145737 4 2
is_linear=0
shrinkage=0.05


Tree=20
num_leaves=31
num_cat=17
split_feature=250 7 409 418 11 18 40 17 23 418 12 408 46 35 11 418 40 11 11 30 3 11 411 408 11 1 30 423 359 2
split_gain=4619.95 2593.47 1572.69 1280.72 1244.62 1221.28 1036.84 1031.66 1434.7 954.036 897.056 877.683 832.848 926.006 772.657 766.608 658.556 766.507 646.996 735.798 641.793 619.578 607.021 817.335 695.284 622.534 602.918 576.547 674.844 600.803
threshold=1.5000000000000002 0 1 2 3 1.5000000000000002 93.500000000000014 1.0000000180025095e-35 1.5000000000000002 4 5 6 7 389.50000000000006 8 9 60.500000000000007 10 11 26.500000000000004 549.50000000000011 12 13 14 15 16 67.500000000000014 51.500000000000007 138.13849639892581 13111.500000000002
decision_type=2 9 9 9 9 2 2 2 2 9 9 9 1 2 9 9 2 9 9 2 2 9 9 9 9 1 2 2 2 2
left_child=1 2 21 -3 7 6 15 8 11 10 -6 12 18 20 26 -4 -7 -18 -5 -20 -14 -1 23 25 -24 -17 -8 29 -29 -9
right_child=-2 3 5 4 9 16 14 27 -10 -11 -12 -13 13 -15 -16 22 17 -19 19 -21 -22 -23 24 -25 -26 -27 -28 28 -30 -31
leaf_value=0.021420164651790058 0.068589954522573743 0.081301414060938312 0.079353735723921182 0.14318167354004149 0.035916117581146122 0.072412957803509384 0.078819126028363218 0.02067330276309895 0.050750439306327458 -0.066972074938283083 -0.013686723960452918 -0.0078612786269100995 0.03758473782336072 0.080212250196533344 -0.051901473840829597 0.062944946270108229 0.059377819134197311 0.0025512473117831093 0.023343943798056668 -0.019497014426680503 -0.00123871246227804 -0.04533045934268834 0.053291097625687837 -0.058838379055517198 0.026357043123373176 -0.0080341292758507633 0.00418360515654415 0.012364063671693737 0.084483231575668394 -0.011315050537119127
leaf_weight=1216.5300929360092 15586.604808472097 1258.3620466440916 1799.5174566507339 87.73018803447485 1877.2940987609327 8423.4042955525219 385.50860388576984 6187.6229068487883 11907.362260222435 417.78035626932979 1757.2169128358364 1488.2668643668294 12955.590135641396 1196.2458873987198 408.20157943665981 708.29060112312436 2539.323410153389 785.85193674638867 4249.9393553473055 1311.565190628171 1159.7981805540621 475.19549435004592 11905.881653454155 296.587162617594 3088.3398014605045 544.88270665332675 907.69638677313924 638.92159705236554 658.8692350462079 1924.3909401297569
leaf_count=5253 6926 769 571 148 4814 5775 530 51446 20314 3126 12557 9264 42145 2377 2671 2053 4376 3326 15749 8592 5283 3998 23894 2754 9935 3365 4541 5499 1488 19849
internal_value=0.0436233 0.0389099 0.049652 0.031564 0.0302384 0.0521586 0.0446726 0.0326961 0.0367211 0.00367958 0.0119623 0.0292797 0.0319053 0.0379744 0.00733371 0.0481359 0.0649753 0.046134 0.0155122 0.013217 0.0343948 0.00251412 0.0446653 0.0145636 0.0477648 0.0322638 0.0262299 0.0180351 0.0489779 0.0130848
internal_weight=98148.8 82562.2 33485.2 49077 47818.6 31793.5 20044.9 43766.3 34356.5 4052.29 3634.51 22449.1 20960.9 15311.6 1701.41 18343.5 11748.6 3325.18 5649.23 5561.5 14115.4 1691.73 16544 1549.76 14994.2 1253.17 1293.2 9409.8 1297.79 8112.01
internal_count=283388 276462 73042 203420 202651 63791 50314 182154 103872 20497 17371 83558 74294 49805 7742 42572 13477 7702 24489 24341 47428 9251 42001 8172 33829 5418 5071 78282 6987 71295
cat_boundaries=0 1 4 49 51 96 97 100 101 103 148 150 151 153 158 161 163 164
cat_threshold=5 1048576 2550136944 268436225 134479872 0 0 0 49152 0 134217728 1 150994944 2 0 0 4 1073741824 0 0 0 0 0 262144 0 0 1073741824 6291456 0 1048576 0 0 2048 2048 0 0 4194304 0 262144 32768 0 0 117440512 1048576 2 0 128 4 402653216 3292737135 138414289 0 0 0 134217728 1048576 0 4194304 0 0 33816576 262144 0 0 16384 32768 4194304 0 268435458 1073741824 2147483696 0 0 0 524288 0 0 0 0 0 0 4 0 0 0 0 67108864 0 0 0 16384 65536 0 0 524288 8 17825792 2147484945 773863813 21 2 68289580 12587056 0 0 2 134217728 1048576 0 0 0 0 0 0 2048 0 536870912 0 0 32768 0 0 2097184 0 0 0 1073741824 0 1 65536 0 2048 256 6176 0 1077936128 524352 8 1 0 0 0 0 0 0 16777216 2097156 268435456 1091797008 37748752 1073752640 17960993 4325512 786432 67239936 33570816 139468806 16514 16781328 2421165056 84 3439526411 4194457 2
is_linear=0
shrinkage=0.05


Tree=21
num_leaves=31
num_cat=12
split_feature=250 7 408 17 18 11 11 25 40 18 25 362 18 1 12 366 11 0 12 411 4 27 427 27 103 25 140 5 408 409
split_gain=4511.53 2394.62 1415.23 1149.68 1397.56 1037.34 989.151 878.396 827.37 1060.14 814.203 826.889 809.317 768.217 814.585 751.62 679.357 674.148 833.623 669.514 643.125 620.64 1575.86 1049.94 615.644 592.317 572.15 557.051 527.349 721.398
threshold=1.5000000000000002 0 1 1.0000000180025095e-35 2.5000000000000004 2 3 6.5000000000000009 72.500000000000014 4.5000000000000009 1.0000000180025095e-35 38.98500061035157 1.5000000000000002 4 5 1389.7500000000002 6 149.96000000000001 7 8 149.50000000000003 394.50000000000006 212.72520817549361 63.500000000000007 1.5000000000000002 1.5000000000000002 1.0000000180025095e-35 9 10 11
decision_type=2 9 9 2 2 9 9 2 2 2 2 2 2 1 9 2 9 2 9 9 2 2 2 2 2 2 2 9 9 9
left_child=1 2 5 4 6 8 24 -6 12 25 -8 21 20 17 19 -9 27 18 -4 -15 -1 23 -23 28 -3 -10 -22 -5 29 -12
right_child=-2 3 13 16 7 -7 10 15 9 -11 11 -13 -14 14 -16 -17 -18 -19 -20 -21 26 22 -24 -25 -26 -27 -28 -29 -30 -31
leaf_value=-0.012068219803969119 0.066349403395363285 0.039373651112952157 0.077958816386398261 0.026084328642554895 0.070169687437898684 -0.0014378935022955177 0.043289858143297423 0.040014103618061563 0.059426261861082012 0.065494113633173853 0.051066136205885938 0.036121368070631037 0.069226847145934328 0.064954963467829016 -0.037035384093620151 -0.090294539105845312 -0.026459777301071793 0.077639391777194686 -0.0096864005500383842 -0.0065649773793871134 0.054369534053644641 -0.03917284369094761 0.093946886520595713 -0.019133863683993939 0.081467651621928691 0.0045774473780497002 0.018096221260092381 -0.0021736791845124114 -0.031745162629769959 0.01403919415818174
leaf_weight=408.58622770756483 15314.227391645312 6473.7033521309495 392.06959956139326 6732.5876053273678 3739.8315635994077 919.55269509926438 4510.8259511440992 3742.8063456937671 619.79057010263205 1674.5650125704706 1546.1142348907888 5552.9050042442977 8258.3304906599224 569.50683590769768 893.03629670292139 114.03179182857275 906.5815307572484 813.49251369386911 832.90261687338352 754.11454708501697 13798.268144983798 328.16226694360375 689.2673217728734 2440.3676359988749 1003.2290776520967 2391.4108379855752 1180.0904413238168 2358.5838968977332 516.99696984142065 8737.3490590453148
leaf_count=1520 6926 18824 889 50792 2810 4537 6550 7566 1058 2177 4776 12091 5520 1440 7251 557 10113 870 5834 3956 20960 2532 1021 14717 507 10414 6616 23132 4766 42666
internal_value=0.0414164 0.0368105 0.047141 0.0297872 0.0336361 0.0510736 0.0290331 0.0529036 0.0527779 0.0336023 0.0241081 0.0197528 0.0566002 0.0200511 -0.000367746 0.0361614 0.0146508 0.0421483 0.018923 0.0244638 0.0498234 0.013378 0.0510104 0.0104863 0.0449615 0.0158669 0.0515117 0.0187588 0.017179 0.0196504
internal_weight=98213.3 82899.1 33505.7 49393.3 39395.6 29250.6 31798.9 7596.67 28331 4685.77 24322 19811.2 23645.3 4255.12 2216.66 3856.84 9997.75 2038.46 1224.97 1323.62 15386.9 14258.3 1017.43 13240.8 7476.93 3011.2 14978.4 9091.17 10800.5 10283.5
internal_count=283388 276462 73042 203420 119383 52802 108450 10933 48265 13649 89119 82569 34616 20240 12647 8123 84037 7593 6723 5396 29096 70478 3553 66925 19331 11472 27576 73924 52208 47442
cat_boundaries=0 1 4 6 8 9 11 13 15 20 21 24 28
cat_threshold=5 6643 2010251520 207 3440609807 46137520 1145121347 241 2 16910848 8388736 2147614729 138414097 1049604 128 2189426760 131080 2181038080 16385 128 20 65936 1023425793 25 51200 872417792 268877896 2
is_linear=0
shrinkage=0.05


Tree=22
num_leaves=31
num_cat=11
split_feature=307 7 409 418 356 18 418 26 28 94 418 11 427 359 28 11 11 11 179 27 87 11 11 13 26 280 20 0 119 6
split_gain=4418.13 2147.94 1273.62 1162.37 1119.26 1086.89 1034.98 839.525 776.685 744.889 780.043 716.038 652.951 977.951 621.974 722.542 621.329 606.192 594.114 591.981 999.738 869.689 546.85 541.051 793.23 636.905 534.76 537.105 610.418 603.384
threshold=1.5000000000000002 0 1 2 134.89499664306643 1.5000000000000002 3 1.0000000180025095e-35 97.500000000000014 1.5000000000000002 4 5 180.64215754391509 565.42001342773449 202.50000000000003 6 7 8 141.04000091552737 11.500000000000002 1.5000000000000002 9 10 3.5000000000000004 1.0000000180025095e-35 3.5000000000000004 4.5000000000000009 223.96950000000001 1.0000000180025095e-35 218.00000000000003
decision_type=2 9 9 9 2 2 9 2 2 2 9 9 2 2 2 9 9 9 2 2 2 9 9 2 2 2 2 2 2 2
left_child=1 2 16 -3 7 6 -4 -5 11 10 26 -8 13 19 -7 -16 -1 -14 -19 -6 21 -21 -10 24 -2 -26 27 28 29 -9
right_child=23 3 5 4 12 14 8 9 22 -11 -12 -13 17 -15 15 -17 -18 18 -20 20 -22 -23 -24 -25 25 -27 -28 -29 -30 -31
leaf_value=0.020163417818699753 0.065305379587066642 0.079295268442826888 0.076460406219402421 0.040358156472879936 0.046132176985928225 0.062363007674664267 0.040074740602269676 0.00067238423209969563 0.079544326531118578 0.049394750256438386 -0.031186716129172599 -0.025811539586034084 0.048353301772661277 -0.021835017871930595 0.059245224072737836 -0.050659112183651815 -0.048414073544708988 0.041035732187099751 -0.041483428346127789 0.036603358384226244 0.067371503155021467 -0.012577447245632103 -0.029018962866581063 0.06914221913388105 0.035044087180641642 -0.080769542763970928 0.049183374084451052 0.036713549495002641 -0.0060310773838504533 0.023321608291661907
leaf_weight=1211.6025000549853 3821.8609175980091 1068.0544392615557 1762.4358731247485 4379.4069809913635 3863.8043140619993 10299.886725224555 16684.47844812274 4286.3406967706978 129.26402562856674 1606.3752152360976 902.78421461209655 419.97392331808805 9291.4071629829705 947.83118322119117 317.2436448186636 265.86660806462169 442.70941008254886 496.34981042891741 389.12351433187723 1537.4309627301991 880.75995286926627 2137.8844968341291 691.92239642888308 10858.05689266324 2466.5662735514343 124.71455325931311 1153.2663946226239 2332.7909064032137 3985.5180165544152 9365.5367479249835
leaf_count=5190 1641 735 499 7427 5626 10409 41160 22996 447 5075 7110 2805 19876 4457 807 2033 3959 1384 2173 6131 1331 13566 4817 2573 4008 490 1138 10808 47769 44948
internal_value=0.0393855 0.0344817 0.0445044 0.0278245 0.0266521 0.0468232 0.0398291 0.0202504 0.0361647 0.0165242 0.014127 0.0384653 0.0358408 0.0263153 0.0595189 0.00928206 0.00163081 0.0446089 0.00471918 0.0317356 0.0195265 0.00806088 -0.0113146 0.062341 0.0508259 0.0294701 0.0160708 0.0141666 0.0111844 0.0162103
internal_weight=98121.2 80850 32225.4 48624.7 47556.6 30571.1 19688.1 28012 17925.6 23632.6 22026.2 17104.5 19544.6 9367.71 10883 583.11 1654.31 10176.9 885.473 8419.88 4556.08 3675.32 821.186 17271.2 6413.14 2591.28 21123.5 19970.2 17637.4 13651.9
internal_count=283388 274676 72126 202550 201815 62977 49728 147271 49229 139844 134769 43965 54544 31111 13249 2840 9149 23433 3557 26654 21028 19697 5264 8712 6139 4498 127659 126521 115713 67944
cat_boundaries=0 1 4 49 93 138 140 141 143 145 147 149
cat_threshold=5 1048576 2550169712 268436225 134479872 0 0 0 2097152 0 134217728 0 134217728 131074 128 0 4 1073741824 0 0 0 0 0 262656 0 0 1073741824 6291456 0 1048580 0 0 0 0 0 0 0 32 262152 32768 0 32768 117440512 1048576 2 0 128 4 402653184 0 0 2 134217728 1048576 0 0 0 0 33554432 0 2048 0 536870912 8 2097152 32768 0 0 32 0 0 0 0 0 1 65538 0 1610612736 134217984 6184 0 1077936128 524288 8 1 0 0 0 0 0 2 16777472 2097156 0 0 0 0 553697280 301989888 2147483648 1 0 151257088 0 2048 0 16384 0 0 0 0 2 536870960 0 0 0 589824 0 0 0 0 0 0 2176 0 4194304 64 8192 33554432 0 0 0 17408 65536 0 32768 8388608 40 3440575503 79691953 1179648 17960993 4325512 198699 138412033 67109413 137 1049120 8388608
is_linear=0
shrinkage=0.05


Tree=23
num_leaves=31
num_cat=16
split_feature=236 409 366 1 418 132 43 13 418 26 27 214 11 0 411 0 408 11 426 11 408 44 103 11 46 123 45 10 12 0
split_gain=4396.29 2163.45 1930.14 1424.35 1149.3 1029.37 980.161 861.024 1068.22 1067.38 727.425 688.415 671.085 641.975 808.141 626.331 784.491 617.756 650.268 527.806 512.183 505.961 494.88 487.758 473.573 564.361 453.399 445.494 443.074 436.597
threshold=1.5000000000000002 0 230.0841979980469 1 2 1.5000000000000002 3 2.5000000000000004 4 1.0000000180025095e-35 68.500000000000014 1896.5000000000002 5 36.95600000000001 6 141.00500000000002 7 8 101.22135389958289 9 10 11 1.5000000000000002 12 13 1.0000000180025095e-35 14 26.500000000000004 15 256.00500000000005
decision_type=2 9 2 1 9 2 1 2 9 2 2 2 9 2 9 2 9 9 2 9 9 1 2 9 1 2 1 2 9 2
left_child=1 2 3 20 -3 6 17 8 -6 -10 11 13 15 -8 28 16 -11 -5 -19 -12 -1 -4 -21 -16 26 29 -20 -25 -15 -26
right_child=-2 4 21 5 7 -7 10 -9 9 12 19 -13 -14 14 23 -17 -18 18 24 22 -22 -23 -24 27 25 -27 -28 -29 -30 -31
leaf_value=0.039140732818833873 0.065237590215145289 -0.036293364544254983 0.05391896509056876 0.067261179462563589 0.074632465290734737 0.053318967010172968 0.019921695735378893 0.063506772928306837 0.053130527784757797 0.033867533793636981 0.088962653070173023 -0.026034201697246157 -0.0099214545725500782 0.097953652528486854 -0.021481938179880956 0.068955478390138034 -0.026006797380851383 -0.0085344813880517088 0.042309937134123565 0.011133726725013473 -0.027908980825137597 0.030219609682684639 0.081602486390121631 0.03473261322752217 -0.0031762350414679453 0.070875192281803431 0.016523837233016779 0.062394887078996479 0.046918029084424981 0.026891160774026975
leaf_weight=335.77854577079415 12452.180922284722 390.1911239810288 8547.6359022893012 542.46828596666455 2015.7771925851703 3413.0359021537006 5329.8063299432397 7282.5216901227832 4223.6317872032523 2294.531702645123 231.69622917473316 466.74071363918483 1426.2594568990171 859.98796898126602 357.76217428967357 823.10110291838646 711.08629643917084 2794.8119318000972 2850.8645104914904 6841.4091424234211 1644.9046895653009 3196.3229697011411 258.5577178299427 15300.563924539834 4556.0038017965853 340.84479446709156 4240.1352663859725 1608.486980587244 984.77706935629249 1642.6358712799847
leaf_count=1819 4804 2207 8697 1820 765 7060 19660 3223 3748 6631 498 4275 8423 836 2097 1703 5254 20788 7462 41876 11583 5434 428 49932 26977 373 23104 3787 2500 5624
internal_value=0.0374807 0.0334388 0.0291472 0.0251964 0.0482534 0.0267603 0.0249236 0.0500287 0.0415329 0.0343788 0.030043 0.0341177 0.0193727 0.0352664 0.0395457 0.0302322 0.0197283 0.0151964 0.0134278 0.0161998 -0.0164027 0.0475404 0.0136807 0.0361114 0.0179408 0.00823595 0.0268909 0.0373419 0.0711095 0.00479161
internal_weight=97964.5 85512.3 66345.2 54601.3 19167.1 52620.6 49207.6 18776.9 11494.4 9478.61 32239.8 24908.1 5254.98 24441.4 19111.6 3828.72 3005.62 16967.8 16425.3 7331.66 1980.68 11744 7099.97 17266.8 13630.5 6539.48 7091 16909.1 1844.77 6198.64
